120 300
instruction$$cache$$parity$$error$$corrected 0.21963529757793437 -0.1449391849778103 0.3040242971090818 0.09017472642448371 0.06668206045360194 -0.20238654376422607 -0.08481889013612653 0.2873153270051081 0.07135262550461455 -0.042221043676612446 0.35993540560617454 -0.24003539784929032 0.05250821351639131 0.15517891668514472 -0.10234649595188905 0.2552014436620064 -0.19679131851867798 -0.23931986799855806 -0.3322050619550513 -0.08896823559455168 -0.42277017951960805 -0.20696947999119575 -0.03705005788582613 0.3415876866886708 -0.21549219631114752 -0.03543275613735749 0.06076083007907936 -0.19783067191908835 0.4283604353882269 -0.15506503452378861 -0.048401201292826976 -0.07135069845850853 0.13246249321344333 -0.12587696187352687 0.11020992947459349 -0.2116190156510861 0.2977668572915706 -0.05783339386496779 0.021157919118248585 -0.252865737486967 -0.035864960027683065 0.12384662203458979 -0.20405006626555894 0.11109022156899699 0.025878248176640015 -0.1015201054990996 -0.22892482572437198 0.4679580517394516 -0.09422190974024036 -0.1647079728360914 0.17174039926410467 0.38717204282781104 -1.9455911982958152 -0.3205418967843413 -0.029351258498443403 -0.028392038036850784 0.16991592350994753 0.00519694876299083 -0.07536143311404839 -0.0966299339501849 -0.11020320850132026 0.3869147787119097 -0.03447806887594634 -0.0953405755741592 -0.2630342042150837 -0.03566661782287695 0.08382010076699481 0.04176918552483823 0.45922296627728904 0.12052092074230819 -0.21845616062345338 -0.1317819652726787 0.09700476693266884 0.17267753207122158 -0.03355389932071472 -0.06655754224702096 0.08644045116497913 -0.21612981560257605 0.30748374192285655 0.12634756740474537 -0.08445183658160754 -0.5000375351465642 -0.05102888860928935 -0.49756666197217364 0.18072886955913964 -0.09346889743906048 -0.16087991704883015 0.3311618155696433 0.4561606520324336 0.07754010446730183 0.15747277451176397 -0.25371077124060565 -0.06082946755782515 -0.06137795057081755 0.03933091241545185 -0.12925136679221458 -0.035261308994468915 -0.13213854259306312 -0.053367915536400995 -0.31427665812119276 -0.5434162977437824 0.04760919112154452 -0.09066054533333219 0.006845524664738645 0.01573646886764339 0.01928433846908876 -0.03986732117384786 0.10379612610480335 0.12813262767481148 0.059638099102397035 -0.06245589030721027 0.20392512144268798 0.0029732771274142075 0.23773089673296216 -0.18836251799580017 -0.04544827709468092 -0.10125915314049927 0.00833926833767537 0.12983227553401133 -0.8369740201371979 -0.009547035487232087 0.182453052775433 -0.04121497846941378 0.2822836772266131 -0.10638729241837552 0.5622451778379861 -0.4866595793604611 0.02713157188867682 0.06770317801756694 0.14943682874174627 0.3521457055855059 -0.3211481683760513 0.3277386997770947 -0.02272210655622684 -0.12100976241522317 -0.07036454915455259 0.09971435488058403 0.028040462074876083 0.07747412891937835 0.3574736238908727 -0.10227536733174146 -0.21665986933431847 0.04319424907513076 0.5883690040184009 -0.24691662293142763 0.14032393240366614 0.04157313586696408 -0.2296309682665397 -0.22752099611260923 0.14354963045817887 0.16160484451924848 0.14461930601911635 -0.2230531199814319 0.08631301205911111 0.008726159436287847 0.5176480140236427 -0.3724381917496123 -0.20029172336374854 -0.043875861809201014 0.06557981139329534 -0.017511074686724866 -0.11716210182659714 -0.27085454935483183 0.0657300936932272 0.2668387494452248 -0.08683078003061036 0.27516176669414244 0.3800764712521012 0.2036229114890749 -0.1893057162455278 0.1684020670615126 -0.02827104950920383 -0.19300711288964933 -0.0003982640702001432 0.1479881317112489 -0.004827809771022939 0.7172834546959982 -0.35192898902352826 0.14334545615170988 0.05031269600274948 0.016797396456192555 -0.042406613188933906 -0.05708661084013396 -0.21334375274375825 -0.429097599742948 -0.0737111131601668 -0.40764251371308735 -0.03562203808257661 -0.14324511804547949 -0.20983765598245968 0.2550618936435377 0.14511051249458 0.20357152902934966 -0.0418562126900928 0.09830632099927451 0.05868583939730985 -0.04935630101411809 -0.05808589819959872 0.2907707423773015 0.028496819027032314 0.027591412486440522 0.1817863983875812 0.09408265265841408 0.2307045447192752 0.12244808028709828 0.013612851606312829 -0.3202688499237445 -0.10245575805311528 0.02460111800527163 -0.1613044278674823 0.12969165883724396 0.02199823986811613 -0.03959046426966675 0.3662127910858001 -0.03717328222664305 -0.09397696672494221 -0.006468055497707265 -0.291375929796994 -0.17596213977293387 -0.17505054664064004 -0.29580195222596267 0.14716667392255664 -0.0035151599187831905 -0.33421933387926905 -0.18190772089178292 -0.2465283958969816 0.026889993144607584 -0.11527379791364263 0.18482263126372256 -0.3225790568767307 -0.23486911822711753 -0.06097656629209977 0.8509334214416051 -0.1561273043120272 -0.26344009775697635 -0.3552728597339664 -0.2702001144011701 -0.2763739671681277 -0.6151437102610741 0.058469782059431895 0.013230009905491724 -0.132740250780106 -0.07780694605063986 -0.03008341879109112 0.12105725712738291 -0.2024916407763375 -0.06226966961745596 -0.000845463949532433 -0.13914761752628105 0.9345632607024588 0.20920773118540248 -0.10194264755805021 -0.021535556077495355 0.15257134691536534 -0.3064329936484702 0.18113505185747314 0.1458314187850063 -0.11595126310187479 -0.055470713946645316 -0.097600640441743 0.005069948783432211 -0.18073025499315407 -0.03499553254642719 0.004954002613230958 -0.7419178917835867 0.19426862102266818 0.04680761644035071 -0.2673038151919048 -0.2571573350764963 0.019061486132067387 -0.36773090049391866 -0.12315958019363876 0.14603967004590046 -0.11885763650956888 0.10448469741067877 0.13810492902006208 -0.04028907601797511 -0.15668325542696973 -0.027061371812177513 0.006507850603293288 -0.15777375850299527 0.07837756746847457 0.09667211055411769 -0.06578593323741892 -0.1838256912767001 0.13925717998709475 0.2514602643420717 0.137853709323152 -0.052273506422514285 0.21302049843171855 -0.11788352457169043 0.16064278808590354 0.04058539799140972 0.19669809709939642 0.058049365967428726 0.12289279602967537 0.5196997759608071 0.4110172305541842 0.2604249549541156 0.00023201755563681883
<*>$$double-hummer$$alignment$$exceptions -0.22727041098422857 0.0455668057658118 -0.25251824328645145 0.3123215843843465 0.10013490602864478 -0.06899292050228237 0.04691056857858175 0.21786204288952438 0.24321535020939544 0.0014123905733766512 -0.15733067739325773 0.24954462768687657 -0.021905018508975888 -0.0709965636467117 0.03829973676216414 0.12190326335528781 -0.14358150231628897 -0.3055986420950232 -0.232481621047957 -0.2902313196087093 -0.20473865477678688 -0.09034055437642753 0.12508207250436212 0.19693213384532313 0.06958977510826324 -0.3446126880292957 0.03289495897201483 -0.03717507098589572 0.004512603067478443 -0.1793548578458652 -0.1527257941136737 0.01066422238569173 -0.12648584744925412 0.06366880594764093 0.18298957336316768 -0.19119302524355827 0.10470841015669183 -0.14336075414302138 -0.044304468864242705 -0.13462244883005312 -0.2804983756446703 -0.04889019009784133 -0.09080455403667739 0.018364823337499864 -0.3465937921334914 0.21221962094557978 0.004373669855570063 0.013704242517130498 -0.2619630023191675 0.07289042256956146 0.04741201475855791 0.2469412187144673 -2.0046652519443358 0.21224140302281458 0.08299040416347254 -0.01733001202796361 -0.1216035734368566 0.04452271625988427 0.12081151489485245 -0.10189721482700784 0.07254763067330922 0.04054888226669388 -0.03931358294771522 -0.05426609542437849 -0.3372096405046259 -0.1338333408686339 0.055463332496975735 0.07457598856763958 0.23769212469309037 -0.24766443389681364 -0.08598696907638953 0.23695512904063043 0.00850097494380224 0.12020598340292601 0.10282713050494688 0.21225468039170692 0.02982846899280455 -0.12510998254677563 0.08628614509309701 -0.08437310786977524 0.0666740391395931 -0.19212923661502293 0.3226597414953606 -0.6279921080192103 -0.14504591461055055 0.23958894705213513 -0.14676660136416247 0.08748671497594453 0.24531932802954604 -0.13752861457990637 0.14355315734622048 0.3305489152310736 0.08365941036684718 0.06865392657827685 -0.2055017193514508 0.19981079160248916 -0.16937869166713163 0.3064320118340655 0.0005692864043993703 0.1332837014038393 -0.47599524491337697 0.08763879593800729 -0.008046131695672084 0.3303464654311568 -0.19689018762718188 0.014284944801738707 0.16642179465246737 -0.22472745462765883 -0.037228924259018636 0.23630168212611813 -0.06159657843771294 0.10453622256436448 -0.03353949927601647 -0.07968741106058788 -0.020813488928029852 0.007251203796349914 0.07752033768416015 -0.24552208328503144 -0.02119778115476849 -0.8596173553837243 -0.05007939556675908 0.022950849135784837 0.15014582091781284 0.2970185576804041 0.031420582353775664 0.5927787407791892 0.06928769431199472 -0.19642071983134096 -0.04464071202776839 0.10525169095514193 0.10599842823509209 -0.05462713595310065 0.00041315848657656057 0.19541059649825263 0.4186962179820466 -0.20890726394826103 0.08936061421118761 0.183103279433832 -0.17932045549370046 -0.03194671663223826 0.04131511258920621 -0.15118339826662144 -0.03318841160669769 0.4667509621258461 -0.06416985778379261 -0.3276322426126238 -0.14766146038451208 -0.21278888011005906 -0.18656006669383574 -0.02083323296276645 0.036737268762475225 0.12364091837060126 -0.10177244392227658 0.2183428180969136 -0.0067215077500424325 0.19936510036457544 -0.061226051869582895 0.0018805512468294538 0.15114759810560208 -0.14264589310345224 -0.15464947930067147 0.0010404206313383013 0.11135895185331493 0.20389208377700407 -0.17183530878953965 0.09546275996582643 0.23300707408257093 0.1299350015579169 -0.0947979113859378 -0.01969574222777147 0.33239113900619544 0.1182941777085669 -0.3239498392684139 -0.07229739949966109 0.12435167516975862 -0.1321992647380455 0.7710891696969706 -0.056614211259515455 -0.14950484390757635 0.10327980074540855 0.270539610188358 0.2126864680979592 -0.22610860773946323 -0.2705184800225713 -0.11092520228011551 -0.11033744063233547 -0.2264485428397979 -0.0766628158913933 -0.08313788795852636 0.014760804432462235 0.125648085332678 0.023090729718636863 -0.03811306324128276 -0.0528083284268889 -0.00031230383842871523 -0.03581377148610754 0.1924739581889785 -0.13399235591680905 0.25223829806413495 0.0944251345149361 0.019557771647426253 -0.0028986667784789005 0.05805858644076169 -0.1598839899151947 -0.2620460149148676 0.05346382373707459 -0.21917560903832434 -0.15254337106353089 -0.32836885813609173 0.04042537485605228 0.12417495123422229 0.37184331674938315 -0.012941549254097566 0.06702921191616037 0.028045596550902864 -0.04388262116260418 -0.08722314051992246 0.01882221484314564 -0.15840616156188467 -0.1276797089997044 0.11403328300849498 0.031840137398654614 0.23358198947398873 -0.23045572510375312 0.0049528105438865835 -0.3302457513588811 0.0014261588647117157 0.38425705939629495 0.12273079605293793 -0.47873311392139517 -0.3034759028894508 0.026314092651313903 0.8268416769266598 -0.2756126814896871 -0.09860893463523707 -0.03776434166136293 -0.07391512929529115 -0.3945484600218563 -0.5601647402027643 0.2781259695986124 0.16143836446623028 -0.14441725693624477 0.0856902586892285 0.0026278853562416854 -0.12393888300998962 -0.18077597043658017 -0.07099079042263438 0.09205367070375409 -0.2623616390978448 0.8376404585674719 -0.2918168714332894 -0.12072806738147743 0.17632686017699986 -0.07483090036530841 0.014486835927368144 0.20440619186521386 0.1640622979732288 0.03087118499010162 0.1361919706960576 -0.39547726397295524 -0.21989677887306547 0.1254506300371095 -0.08243112202104269 0.14829243151124644 -0.8170779205601424 0.23769389756408127 0.0473795274392892 -0.09711423374255468 -0.34095483417904854 0.09822964529098732 -0.07585887165853572 0.04032982664666553 -0.040969294994484054 -0.049275209476037626 0.03431334377064444 0.005582564487688922 -0.15158429417820507 0.04248570648127702 0.051988249018027524 0.2938771282530721 0.1456965003100013 -0.2647329409343472 -0.017394372173283316 0.09801447083782114 0.16467673625421692 0.39233687232878384 -0.03349383933881651 0.17572035799141283 -0.13927254373421266 0.27255231533345486 -0.15033913930180523 -0.034970763253510125 -0.046626846841065474 0.031215731618929266 -0.13765420409500562 -0.1512599936195021 0.35815602630417304 0.49851744114042496 0.3541535730988093 0.05862715188562435
ce$$sym$$<*>,$$at$$<*>,$$mask$$<*> 0.1462823434709931 0.013510865343871662 0.02551451968538701 -0.11949810633291183 -0.12475186158549287 0.027341121695054454 0.05680489275996372 -0.22274319053050523 0.0762323419572483 -0.022369620589448396 0.17368009348254898 -0.17522597869813353 0.1241891209540238 -0.18390935560928787 -0.07567888515384344 0.021310187629785978 -0.03341945404668149 -0.3421020848361132 -0.0635285923320447 0.11771351891833705 -0.3335673559341291 -0.05976603221420307 0.08517788442265868 -0.013720262200943748 -0.20391755014405763 -0.0542711840102246 -0.27345559007410375 0.08000270215767155 0.06193252735464463 -0.012282586441078623 0.027152148029009407 0.15793934282312494 0.0689362814611516 0.041330370154058264 0.09711108106621942 0.03163751536683666 0.2153075385842353 -0.06254431356831279 -0.1188039748069594 -0.15605432869673366 -0.09582559547640315 0.040760278706929644 -0.046145900841555204 0.14673435380843958 0.23296906685789268 0.04976549517512821 -0.06456715582280595 -0.11496978212800334 0.26908357591055787 0.19323243829140271 -0.03322377250629643 0.082373968439307 -1.6207275662770213 0.17509568969474001 -0.21856309530975337 0.12373209817596866 -0.003698955217038887 -0.2768366162575796 0.15905664738122013 -0.1192881341651382 0.27306164539365835 0.13400951938375907 -0.18107015606836696 -0.06375793829521362 -0.14762504190080203 -0.2248358091438362 -0.09956922673994473 0.018898243903193557 -0.0046793346862436525 -0.16507188558648167 -0.21886438701405703 -0.10826431983282425 0.32096922510262393 0.14619151603218894 0.08814251718772398 -0.1175952450832051 -0.05441852037081631 0.12044646045247429 -0.06432716417378558 -0.32904581427733076 0.0757894169983522 -0.19489693960716037 0.08679407717555163 -0.4691306996857292 -0.051367845105816955 -0.06336683234099767 -0.02745540025655277 0.061993134441584066 0.1695489547867631 0.07168964900824562 0.22363220473856932 -0.07796837092906231 -0.04756678490126371 -0.19546670324716311 0.1251904282230147 0.0938845662339057 -0.12400110788142579 -0.09122252627477846 -0.11645756907060192 0.2044457154369878 -0.2074509372847319 0.09357292691931544 -0.040537546773309556 0.0064062983427533825 -0.19127925028529655 0.19047846448395114 -0.02730113138818462 -0.07189953272520928 -0.02259851636377199 -0.07578097330866138 -0.03856983137270821 0.31552553687267915 0.18562605197523238 0.04357091893975019 -0.008587615682588295 0.1563957848583402 0.05981322884703895 -0.11290504632692008 -0.133559429717861 -0.5722321428192048 0.01266541134499032 0.20528485864165597 0.02268336968265594 0.12142481908368302 0.05819250137612763 0.30437864452818114 0.10040198918090468 0.03834453971214046 -0.07512416774024744 -0.0004694573504833849 0.01892566803222351 0.11717615821795138 0.1846625358466749 -0.1723580201377555 0.053588945243286674 -0.1460518323733521 -0.06194008924796623 0.08250238938476123 -0.02660266269784199 0.08345080004139505 -0.027980592642662748 0.10149612454317739 0.03063211141158939 0.3633574089050776 -0.026591487548214332 0.01430782517095771 0.026972338545380684 0.04271149737679596 0.05889822819298876 0.31629192749260787 -0.11855212616684305 0.09871003086508381 -0.012870699426919777 -0.013163124357546442 -0.01122561229130453 0.3320179573725525 -0.030145910616488036 0.03229559054950617 0.05406556639292823 -0.2958173106737842 0.06952231468985293 0.10878011628290168 0.012942276835120545 0.4359034972769664 -0.18691746428161718 0.08528466269967841 0.253610259907161 0.1538675848884435 -0.037138560088912496 0.05700773518283933 0.10287085920795323 0.3873113244194157 0.02595082439044017 -0.20710797007810833 0.11773198349342223 0.14988867449082352 0.5787459607435188 -0.14893606364320391 0.038506002100808755 0.04041552316762313 -0.06081178438512802 0.3196604616779898 0.10124351579603162 0.08348374387775151 -0.04122309045770568 -0.4246578938046218 -0.3417171061478317 0.1357044492222425 0.20705528956106733 -0.02076390374775476 0.13794907746379656 0.16135220970147943 -0.09569027776192578 0.033604156089975315 0.18369184170413422 -0.11791434999709227 0.24122379949492687 0.06358938586289455 0.1556757124475741 0.14352495743450355 0.09720801352707331 0.16904041749598708 -0.13578148687777553 -0.1434940719697953 0.02804811489299696 0.3058573006518323 -0.03115413275474433 -0.007710022449440527 -0.043120691156805044 0.003063507565633698 0.08550857868270717 -0.00036408394325235043 0.07081571878771199 -0.1304330809513302 -0.057577428607632444 -0.15356696516468987 0.285604334518164 -0.2217015982881829 -0.09567669509435553 0.32556645073250784 0.01843252180027994 -0.0645186187467905 -0.08579598782556365 0.03235712370507073 -0.10941430399303298 -0.34343094261131313 0.16452121548024626 0.1443902466038184 0.18920545069829134 -0.021616853936923038 -0.060836331350596205 -0.1135222525458228 0.5645626139116544 -0.29947315277158437 -0.012979265305260178 0.03719595732286833 0.21598061388399725 -0.05427054456391568 -0.33769752614380255 -0.07823796176919287 0.014560990037449317 0.0781864848135373 0.08695587538791436 0.08264381107654717 -0.05591407376547182 0.17367137838431784 -0.020578961781760188 0.04003433829051675 -0.3578531612070585 0.46943433707632776 -0.039644443344791475 0.09903645310571924 0.20792664840146066 0.05209080533179177 -0.12980113747841449 0.15527633922372464 -0.01549691562252959 0.08332815182889096 0.007861004752562633 0.039076878292882075 -0.07389707980036 -0.07956282171225423 0.1392667546506037 -0.11241003454301284 -0.5985442086224417 -0.16121465137182792 -0.15399398774963435 -0.07548694224671829 -0.0889410417879629 -0.12125449214151118 -0.08893627971085549 0.0311815044538888 0.08938878179311394 0.29783236757016357 0.055911865374790794 0.13040390847091457 -0.04692567410020404 0.009736443193363652 0.15740782406569293 -0.03930538967618215 0.21844199685026564 0.02601128659415189 0.02631655903606115 -0.04516711362305861 -0.029821598074314653 0.0925315248798423 0.07365664040756417 -0.20494865767358625 0.0987228757204993 -0.031186788103646203 -0.005739220247479075 -0.10790258694330708 0.1630664995286498 -0.022257987634662763 -0.05990104406089086 -0.0312518868164473 0.13016495633215855 0.08965836363909588 -0.08504836329510608 -0.06592714266316232
ciod:$$failed$$to$$read$$message$$prefix$$on$$control$$stream$$(ciostream$$socket$$to$$<*>:<*> -0.07901870638862074 -0.032811868178484485 0.12441509362881564 0.1003364421977204 0.009328511489955556 -0.2350936371591177 0.01193916920635022 0.01115622994695502 0.0581097653440294 -0.052213912474555 0.02983056911592224 -0.23951051898324302 0.19156446355097786 0.06397918429429061 -0.13802073203290516 0.08081887035044635 0.02594396352451556 0.11534256220639455 -0.2008499561756086 -0.006321638965542598 -0.2674767024186353 -0.06194966358472713 0.04153386735604466 0.07937652486972485 -0.1898202173111652 0.013361859577936857 0.14457596086609437 -0.05570574347226717 0.0001890357167796771 0.03522245336770986 -0.14822227745791938 0.10097614127447054 -0.02199167213394844 -0.07904541783675383 0.07109224810361119 0.06195297935518204 0.07842942207284805 -0.21213746263844876 -0.13860038950651246 0.04751116824457348 -0.1475895637287219 0.05557072771049573 -0.06857962340004482 0.026060939213413944 -0.051681081514981346 -0.057074180969262346 0.09188571591819439 0.0958519702433005 0.024086920928723103 0.06721832784766826 -0.07998612808770413 0.20008292780201453 -1.8009546355957269 -0.01792660663420114 0.15474576342387877 0.0018673577989277105 0.007664144914960527 0.16727749412353782 -0.004147465464273331 -0.07895776828180252 -0.01933953546340946 -0.09441677035753661 -0.1710696640196186 0.021650393250314818 -0.004621077501891863 0.04368339945704867 0.10524809201043132 0.00848611079045052 0.0504830860994738 -0.05881631846583249 0.04408192414963133 0.05443493970609233 -0.14043536690282327 0.11626454079204154 0.1535447935980777 -0.04085135709150352 0.18439434413033612 0.10502835985415845 -0.10580199218675534 0.13758642836445603 0.048085086030889915 -0.24516707083063755 0.06338929917791292 -0.6325441861140066 0.021034561010006662 -0.010534143137891874 0.13568326618712642 -0.005746647126319952 0.15720951856908397 0.13241330383224495 0.09329505217361997 -0.07991601088512329 -0.08901222441487157 -0.18007316198979734 0.09671622935603372 0.12451246250926826 -0.025562288907088667 0.006854972496109685 0.1191406160761366 -0.13995696321009238 -0.39959858887448513 0.08141244686412671 0.0001228130404741859 -0.10108362956700989 -0.30379231560888664 -0.06929189116898044 0.054832105852079614 -0.10571471702994821 0.2882869845001032 0.04434149371830911 0.18731805981145364 0.18019362972822747 0.040756084976821996 0.11850819198359969 -0.07228182470809397 -0.013058976969372076 0.10796732942152884 -0.18812386330195707 -0.11856226583098012 -0.7649184824416914 0.09137642524528396 -0.0769032221444184 -0.18242184336749662 0.20719386382215757 -0.06507614910904128 0.41557302853261757 -0.031144718713131306 0.031779560805227376 -0.21281490661264174 0.09426762989566376 0.08242344800508987 -0.06767818886922572 0.016554368730752726 -0.05745755386800751 -0.062139683108320416 -0.16043838403566504 0.04417540293615049 0.06946418519513539 0.06183369864684131 0.05418902188384157 -0.08521581480855027 -0.09201053380386466 0.06166881585921008 0.6401730762729987 -0.033765154221907866 0.046604717152323456 0.01358865766899681 0.0014264507232603085 -0.10694154840110912 0.04001230737661812 -0.09133855680681717 0.03651714998342799 -0.04880122380127477 0.057561150552061735 -0.05824054203206734 0.2741289072155295 -0.11660177065484362 0.10837293602165417 0.0413780512626528 0.02085656798691063 -0.017508331205787098 -0.12771095675289723 0.12473297661722721 -0.057839694536274175 -0.2598613203814806 0.020134310304928148 0.16939629802149736 -0.17699890500082588 0.04399494626155039 0.13013320628407596 0.12113406718082724 0.03257991313545639 0.012062002178949486 0.08281340832078404 0.05506782482627529 -0.15956406242815105 0.4963617678539707 -0.6799749544686184 0.14965778858942036 0.032501695991225286 0.0983692446715822 0.1255363374007614 0.04682356379401341 -0.12688132728076143 -0.010675789655958508 -0.7090369800923433 0.057638840466410685 -0.211662213288668 0.3354826314254441 -0.008924254977099881 -0.051179017602350316 -0.13044798605101898 0.09708123279580828 -0.09480725410481788 0.04029783666530083 0.000994410903351466 -0.01748740319927575 -0.04779741585248969 0.38749094816360685 0.04232019172419927 0.03859411195052549 0.2561811242832587 -0.0426154868159251 -0.07043825653948275 -0.07518086576755895 -0.004409336295509231 0.04442013360792715 -0.04115125822413272 0.057774058640703924 0.09214568942158345 0.05466635199739858 -0.08393544241745966 0.010462208570935001 0.0801409674482199 -0.15076765138752357 0.13327195007861675 0.007822832800003503 -0.11562106140060774 -0.12776917164935242 -0.004267095019848965 0.021138452740238428 0.08000403327204261 -0.02818575494194278 0.06857905892985616 -0.06929387441018812 -0.2803978345516011 -0.03360062685832437 -0.04343420825598926 0.07188005471001115 -0.2041265189771975 -0.19943534557134718 0.07022177627672704 0.7025945444595108 0.08631350851581765 0.04256921121686084 -0.1994100402535943 -0.14198441342349866 0.2744076557838516 -0.5393111454886454 -0.014239041219635606 -0.030387206562567402 0.06974372021059631 0.10381085267568667 -0.021892743865950286 -0.006431782967659535 0.02243808130216253 -0.038019646083784095 0.0035582661835815137 0.05878681716335845 1.0408817494348241 0.05120973573822207 -0.225202287757265 -0.01512846528833915 -0.023111779581339854 -0.2279571351588764 -0.04243898583960618 0.019678114473237487 0.06515176108849335 0.1157456504385115 -0.10142629753601946 -0.0558149226692682 0.10107559745155045 -0.0424068947309293 -0.07151617590546029 -0.5767562517760259 -0.11439088898308127 0.061622541471200894 0.0009800212174546005 -0.009952405488707766 -0.054412218893679795 -0.09017789665957145 -0.07673060790378677 -0.131053250728869 0.04457178762644981 -0.012920944826391195 0.1892187426072015 -0.13505116435927894 0.08025232403415773 0.047256305310550514 -0.007806097592779348 0.0028251620880650353 0.0679896545154823 0.09403800829749401 -0.04368189722755485 0.10226571121739142 0.02583429594891818 -0.16375937184983574 -0.09225814801444363 -0.005979429742439833 0.11858279328044205 -0.05100807745176651 -0.002982204517843594 -0.016013926630491077 -0.05630105969135811 -0.10779376203084204 0.10289158703989645 0.10745067874039295 0.4098591712674425 -0.08961435321861153 0.029126882174830775
generating$$core.<*> 0.05095184407664026 -0.1568008604404617 -0.25632514009791485 -0.23163489711553942 -0.018491753076946713 -0.31457987778244023 0.09986519904408875 0.11459677415511496 0.4138822455471804 -0.47330968392956674 0.09384034709537575 -0.23777187042689696 0.29497090206037413 0.23415933935662717 0.3178372933289811 0.1229753967143292 -0.4249356412514482 -0.049692836489330316 -0.4672415372180957 0.019924998924252837 -0.021788684660440736 -0.24721248486515704 -0.06883196217463265 -0.2836474617658663 -0.11479912221235725 0.04340295447301579 0.06379232984658399 -0.2937307521161834 -0.4845076543142849 0.08207177636068354 -0.478648989078002 -0.05065506688358451 0.3072875429834404 0.18017513469928434 -0.19651327578799266 0.3231735614524887 0.04477531937893034 -0.1269026443320273 -0.025292096043594434 0.09574287802556455 -0.24465965034988257 -0.19516457111056706 0.023677196041405654 0.06303011683612239 -0.06040478304335408 -0.12114405840687588 -0.08308521182679157 0.14272735798514666 0.0808990051231507 0.2441370061095659 -0.25540284961515125 0.3358763234829874 -1.8463634106360736 0.3089173101248013 0.02165738798746361 -0.009020486230722151 -0.0790652654434493 -0.16804113675951932 0.0025205224359390876 -0.014934382233078608 0.3668658418742746 -0.011367335360546245 0.020668283751923297 -0.1231416187761585 -0.2408997548609027 -0.1539220795667949 -0.06825419305731348 0.004199057927506536 -0.017057377162751693 -0.27236791653739695 -0.07943909737182717 0.26634338241502375 -0.08022956141800518 0.22470791882281393 0.13671663163385514 -0.20810831445504022 0.13025007463589713 0.044811268786473804 -0.1940705142797272 0.16574411534799222 -0.010451825119989487 -0.08839326426398197 0.009690812716088681 -0.6193698877154782 -0.11767175849649679 0.09791633648534075 0.0917746664776846 0.13061045196893237 0.09452755372615085 -0.0849191632846352 0.04281960587917703 0.19896627811967707 0.029335561416955314 -0.3363898919979202 -0.11120329454049996 -0.25042861849604975 0.06936117471988747 -0.16119718120377377 -0.01545444851327768 -0.3273254401614877 -0.6001463267493665 -0.24581430564517337 -0.2813007892239117 -0.21139549947019806 -0.9221179476398593 -0.3481872435319373 0.161689102496454 -0.12135361058086247 0.13979588895612463 -0.003387264326289316 -0.0850243278172034 0.27659395419526067 -0.28174461300933773 -0.2189807975461761 0.08932893864328986 0.06805442296018879 0.011163221583735464 -0.09051470541135526 0.1363320996581217 -0.734341023403453 -0.18666072576910456 -0.16224328192495613 0.12320649022149718 0.4322587343474837 -0.1305659212502143 0.6633874788429768 0.012503839364195819 -0.2620420557414064 -0.24102349440052306 -0.14238241290429127 0.3013783790267817 -0.13054907661333148 0.522637411040164 -0.03393278234428093 -0.10355930495810975 -0.12335353697299403 -0.2954872604726932 0.03620575500218089 -0.18260942078544629 -0.15046803683712814 -0.04041176975976379 -0.28462282892912333 0.14948641919527272 0.7129272300394807 0.066175304971821 -0.028710754319598922 -0.08710427527078635 0.18846889826227825 0.21991400001356398 0.045274585867698655 -0.00787183428648832 0.27115767730029355 0.023277055384749362 0.10608297030804761 0.14789076520221486 -0.08228644894637957 0.24367217059544044 0.2920343124605161 -0.056521783667433434 -0.07435797134998817 0.16704129712722426 0.37192577957954465 -0.20860726311746874 0.06739034695342064 -0.37783049396744617 -0.049972203932495546 0.23926776293516316 -0.024780187200032534 -0.1694575379699426 0.3840034166863472 -0.056133755601962196 -0.09246141388452306 -0.12148939201286946 -0.1546895543865628 0.08680926379729907 -0.3738401759733771 0.8162312868477242 -0.4764518350403377 -0.0236620110758937 0.07871654163678898 0.1630161244431014 -0.2530708322751001 -0.07112735910506153 0.15860126386300993 0.2512266750249837 0.3506732996438343 0.006572745549217527 0.12312187835281826 0.6480158411294104 0.21984453776099785 -0.028560811940771265 0.12303585394030989 -0.05961223545126779 -0.24967964814366206 0.04790115561642698 -0.16732373694471636 0.09207564595282963 -0.2360874374733436 0.6410445794046348 0.1940000280084698 0.24181021522942187 -0.4468813310098641 -0.14236751041571993 -0.26268240082088723 0.08645446609990992 -0.17098164616452596 -0.05195842860174299 -0.10127510248924575 0.09184278672609315 0.1988187017636983 -0.276724579866159 -0.1381406605173071 0.08969023410594525 0.008948340128967308 -0.19621568635438782 0.182665463792069 -0.06914964504819021 -0.10136494081783173 -0.2754495398825153 -0.06108196046972589 0.055965873868762006 0.01122766931366323 -0.24301660520104848 0.1493130990648967 -0.1929818251472648 -0.04244690401768808 -0.004519142173312195 0.291256985183341 -0.5301126007597339 -0.22144764299834135 0.20359432804283667 -0.06610181702503509 0.8076952706653966 0.22074744099616025 -0.046923881495131124 -0.13125655327192876 -0.15920029183656992 -0.17465534065312796 -0.7145107360919541 -0.038742239294781794 -0.08257259663175168 -0.08778014604239974 -0.009699394027263247 0.06659808183827494 0.19450904106557426 -0.10750152560405109 -0.0722046418386904 0.11713364681372758 -0.11548781192663371 1.1429453745071982 0.05468917405462092 0.11271207669022765 -0.14600476108256913 -0.03767911734884706 -0.36998532158497527 -0.13970509714851925 0.10571881440833401 -0.0840374837154409 0.15647509066993887 -0.10701490147007632 -0.047973548845723205 -0.1032389028859643 -0.2666754733629434 0.029145643777237884 -0.15134491382095275 -0.008655977155269542 -0.4430602014037537 -0.18331043502817654 -0.5927730174098957 0.20995875753315416 -0.25428545038216227 0.3081850431708262 0.10137959601973517 -0.27693459110495566 -0.08128018224761666 -0.13966946556731558 -0.20054823038985087 0.036386491027443346 -0.08903696419473028 -0.1553603399367394 -0.055784572730491866 0.12402884263159968 0.1595177275825861 -0.10087715126756885 0.0839790393365701 0.26591876928932945 0.13577947401191937 0.4025534375542952 0.3498686041111638 -0.1330588283031166 -0.14538129598937036 0.1148130005231108 -0.049248942005105906 0.08004628278202433 -0.1265869743055796 0.08008692904499287 -0.09196133515520563 0.43243936448367504 -0.2517613613168135 -0.17123820096915057
force$$load/store$$alignment...............<*> -0.05384863867909242 -0.009878997260683517 -0.102311486789317 0.04257950663221829 0.27439055065225265 -0.15422707683305298 0.00044090189402125335 0.1610454156775662 0.11980115855579579 -0.02145086680263987 -0.0983721425866282 -0.19512204393877142 0.2882185785169962 0.055879003991154946 -0.14894754811953848 -0.05670476076151007 0.09269456540775882 0.006976991899668938 -0.3995893562127845 0.025766106801300467 -0.3477745473049884 -0.03685849064400788 0.1857853746710781 0.1288843757852664 0.04233952733022678 -0.3128687805538989 0.09771544274448872 -0.17805273354840212 0.01294711702116277 -0.28671806893182517 -0.07961268862431378 0.07028187660733634 0.14740494703010315 0.18988345436475354 -0.020649438944168694 -0.017076252435487008 0.3029348371805606 -0.04441404529012412 -0.2408706473403901 0.27588819174114815 -0.33115264966469315 -0.01933001469953368 -0.13099670683038386 0.2975489812094116 0.12229501857050121 -0.40996876817840694 -0.02717827612850423 0.35035224141211857 -0.3757120621652904 0.32283834990149307 -0.05823184748813082 0.15604307061720338 -2.106693905204545 0.25839770491550484 -0.046608329892648126 -0.23065869635768738 -0.18462445578417255 0.11142652498662614 -0.10851037690465257 -0.14282343730910663 0.11327800096648301 0.05018834762289481 -0.08534015658615834 0.4299648266435474 0.02360180378674593 0.044512249319791836 -0.22167505349636688 0.03649493141737309 0.12159185827083055 -0.221386582578172 0.050355112080972084 -0.011601476318791992 -0.2220420041928126 0.10866684859890434 0.2132765016105389 -0.275828395850124 0.0070699404225805645 0.18617389783524674 -0.1570293031409068 0.24903941559218304 -0.04705373032151711 -0.07884644904042652 0.04586712843315794 -0.7401972619392627 -0.11436625686823615 -0.10763557623918038 0.25804773940280146 0.302167089392709 0.39552478024793425 -0.1422392436635159 0.4682108928950881 0.05948498631965943 0.16248084832515752 -0.25183357380805516 -0.41895665151857153 -0.044449379162645186 0.037574041999786395 -0.0058544173592317145 -0.13540859089290738 -0.13660686135879643 -0.637454131528612 -0.02498781999393942 0.07325899556824575 0.01089328520342793 -0.007874456513810246 0.0010859773125961765 -0.28915295405645614 -0.16462794635456554 0.05815697621292948 0.16467243873767998 -0.12550239001302102 0.13706610282759943 0.2644001041748632 0.0160409337497317 -0.03685752777576659 0.09391420578375115 0.00874784071097318 0.3706375998960657 0.14491923522232616 -1.0036531994173779 -0.010732413249943937 0.05854377202221414 0.12291555842348847 0.33967232976506007 0.20298427802160093 0.6120712404231744 0.013531327193226278 0.042911311877723 -0.1765910678151595 0.337848613351448 0.0977813217803121 -0.09532800853115786 0.1665571501692034 0.07915161773774643 -0.21987348345113006 0.38010144466945633 -0.08411991186154613 0.21763778251239396 -0.0911190288136313 0.2504449681943611 0.04545363101684188 -0.1454636445896916 0.3377358241663766 0.672436205425509 -0.1700334920349857 0.16362060436687792 0.013441751893801993 -0.02860853509361124 -0.1831336955571896 0.013279245311968828 0.05084636923620958 -0.08818234487896975 0.05132783652764196 0.4766655269668261 0.4054463090074426 0.25926997512676186 -0.14032089092577105 0.24022833517950457 -0.06876131681868161 -0.03778751064345373 -0.19406421498039783 -0.012322811668193476 0.09320301329614286 -0.2557217910909497 -0.35145447969918486 -0.12846842739897735 0.2440184470240166 -0.1008894050798704 -0.07824629477265638 0.1471809545696104 0.14903002287591627 0.34791910145561367 -0.2421849943235176 -0.014271640565203685 0.22493532856183465 -0.1812016211148933 0.8984035440023337 -0.43981473065021276 -0.12218974474595411 -0.024019429662818916 0.28713389358245617 -0.04809123254837472 -0.26856704635488987 0.09405569724413912 -0.12569812765677085 -0.5810947270703927 -0.10362145750256428 -0.034321481729066405 -0.09220828308203574 -0.1226606215169928 0.5222792123366606 -0.015454025762773597 0.04993513507246691 0.0497191557175943 0.020457616765268354 -0.13222531057822168 -0.22686007838638875 -0.006745914633020069 0.40938399921841073 -0.2868610151454276 0.05789926918290661 0.1883040849212188 -0.07136803243203521 0.009677668813781078 0.06618604767833795 -0.1806226944190617 -0.011349839056805373 -0.23847622516076147 -0.12019105025915716 -0.12299916040647674 0.23997100088426382 0.03362818595606301 -0.09907103498429917 -0.0014751937375250476 0.02336411143085546 0.12367426624527653 0.1064688811955894 -0.10657666306765842 -0.19371044681709465 0.05826637524208886 -0.14582571978404724 0.1824390751204453 0.2035010233805749 -0.09633018304581645 -0.06455199545461732 -0.45864017869655943 -0.07993583621510537 0.08011142283874685 -0.12929307058747264 -0.14203263885106981 -0.4263820438649414 0.1209081035587234 1.0072804875459171 -0.18742343167424663 -0.33270139784662417 -0.3902346932981227 -0.38612254438733756 -0.23219616611468633 -0.7755454841387901 0.2117385940800091 0.0647728405102591 -0.29757374585340796 0.1559152195044744 -0.01023546325897913 0.309498350676682 -0.25170886358095024 -0.10617468320643457 -0.3058625460759389 -0.31611604840810337 1.1569545684260552 0.009919379441842699 -0.06546891705862215 -0.2711774154244128 -0.03925218967384052 -0.13331721134056565 0.006654636595592248 0.055001844458073545 0.2938297475509104 0.3805654076996681 -0.2029560282308926 -0.11702412958567363 -0.25684827814496547 -0.10261152252862424 -0.03494865931326669 -0.8019566322653893 -0.02709086298340411 0.06147230370889437 -0.48057541998765446 -0.3832718027036252 0.27685484037972996 -0.10346326182757323 0.07483642039922324 -0.2863187076052729 0.03467575570904545 0.11741351887680948 0.2525790915411351 -0.1515260428353943 -0.2051948837912383 -0.08073629482089635 0.08234331115679437 -0.06030421365985475 -0.08890445732882579 0.24194996698304622 0.23219039367875652 0.03284368872900645 -0.07748759917755577 0.010060566385894993 0.2946230096152339 -0.0560511972439353 0.07643561357870887 -0.06141911968227274 -0.014236530673919681 -0.1423237557184722 0.31304082422303825 0.05784504359306619 -0.05236810186288326 0.1593525953535331 0.3133029324020482 -0.0660126742013765 -0.2441389602235854
ciod:$$cpu$$<*>$$at$$treeaddr$$<*>$$sent$$unrecognized$$message$$<*> 0.14627565298746534 -0.0991299346123495 0.21322474312314718 0.0036771002805739933 0.06892795293541137 -0.13742339769680975 -0.10843152019571536 0.006533620405368925 0.06921184289285201 -0.01854683711417544 0.2792511884510105 -0.10076839830746204 0.0696442177257621 0.09851226666291259 -0.10015305487729975 0.045623496711142436 -0.03265002765682998 -0.16797337264405368 -0.06540736077345763 0.005413821328450528 -0.3779039618435072 -0.08084546462760414 -0.13279096367859433 -0.06483688589924919 0.006680742689169947 0.05658904227403341 -0.07441044846351107 0.10694106396521999 -0.01717202515656328 -0.042731761338872666 0.010586642980824505 0.0448359875366924 0.08031874538168289 0.08354986096239958 0.04314334418157362 0.10755806299445295 0.0009867764244977963 -0.04467052815296118 -0.06613822776784634 -0.061480616449527896 -0.20230875577383006 -0.004062533906421684 -0.027280897212534346 -0.11810311674670361 0.036489793422993445 0.00998784919654561 0.01571677879785813 -0.06701745744910233 0.028776441022756765 -0.05250431101382173 0.000278554249448032 0.04949134662690217 -1.4182912022752432 -0.04978090691165026 0.11371710044865825 0.021397108357072175 -0.06597674627696193 -0.17284004644940298 -0.07509336818622189 -0.03846201995722105 0.1716273888337107 0.00975392724532407 -0.3026427886600897 -0.013372274264986066 0.02447373653919212 0.015189918819885715 0.14042963474785797 -0.1439292639862713 0.09976104958828222 -0.020833193769063663 -0.05441663453149849 -0.021596573518729463 0.11495348064804392 0.03884873788028991 0.16515951834664103 -0.04311972895605332 0.052402100372127364 0.08225652272565782 -0.1823790510505327 -0.019263406570519167 0.20081201353944622 -0.1715155910228765 0.08362466490707164 -0.4903876988471604 0.06442115206608426 0.04094803872667359 0.026469340298632897 0.014293861268635872 -0.015619223468046443 0.07279146891000465 -0.029269146955726452 -0.0705006817341855 -0.14249875848214685 -0.15427828324422357 0.13494562727896697 -0.037406863112592045 -0.14153361407469892 -0.16650744880287344 -0.03026084398620349 -0.062153293808389215 -0.21155721242328976 0.10079842488710333 -0.052810385354048195 -0.04688687369957995 -0.24869659598892532 0.14900445340994783 0.34981460824451205 -0.020779221981977587 0.027551869736005936 -0.0026581259493050624 -0.011645359044553613 0.17769389812772932 0.10660109468206436 0.16352911272130483 -0.007875479082486819 -0.06925106988347116 -0.015402380299231275 -0.0505757630324577 -0.06799734983506325 -0.5219859677339295 0.05760935209702697 0.0072152187555631735 -0.1342509084072187 0.09602788398603491 -0.10195972120527352 0.28168871503010606 -0.21431215888568333 -0.008470225266237736 -0.08401699087042003 0.013375945105274206 0.15529925882798004 -0.1079273519011765 -0.06492996495451575 -0.04669153321602922 0.04767397033587982 0.014267318274575148 -0.005110434841808002 -0.01756023564225085 0.1343806916734888 -0.010899634851104952 -0.07550373091267988 -0.013347680438360562 -0.004260845512245603 0.29686067984097997 0.04555640862284875 -0.013860564299090463 0.05411155178978512 0.10234879027592744 -0.1368069714741034 -0.11093736424195894 0.031706266137872835 -0.016821415968926612 -0.11048033035927723 0.05073575312332046 -0.16769409212556433 0.1800694483413848 -0.2844861171520733 0.019831300397609372 0.2205950348691696 -0.0005847811335240524 -0.054513487757648096 -0.04992281714675134 0.17234794392892125 -0.20894879700478405 0.19827042464299316 -0.134999006076902 0.21136637097421201 0.03693742439885711 0.13199429661265233 -0.025154792794097484 0.1009843552154108 0.21173313787235823 -0.165779811481124 0.08430730200168779 0.008673239394933308 0.008642059987510622 0.467481880341489 -0.3303670737158159 0.13101067392555554 0.030948666505076702 -0.01641216954555015 0.04302097320723226 -0.029123344966104338 0.17623502498906207 -0.008329520487465995 0.02019550101043597 -0.024401724028653246 -0.03266134745053685 0.36818250673809805 0.14241470531237782 0.009699647480673796 -0.06375493486142217 0.02942191585330848 -0.08515129892277803 0.020374883272890654 0.02736755665152098 0.06410206389237072 0.13636507881784637 0.14790707701632183 0.0640785646787413 0.10347840718035328 0.08485125293340497 -0.13981544920102335 -0.05399296273342428 -0.0713444452758109 -0.07962277650062949 -0.07749468203631849 -0.09727263097628387 0.05287958524940743 -0.032841559909124254 0.09559343009604977 -0.07221539165377518 -0.023758789729111496 -0.026125945044566477 -0.09720049539819708 -0.059503147731477815 -0.07631995039091569 -0.13865522093477392 -0.019277149416522123 0.10795414517742188 -0.07325301053001035 0.09721435155851726 -0.029718976918230777 -0.037728120781650706 -0.04373861914908961 -0.23978161893277988 -0.09721179414935407 -0.021612839705185863 -0.10975476962441291 -0.1514135940557431 -0.016561561916126552 -0.04831709793915237 0.4260863607399681 -0.03935817143871751 -0.047579440918101706 -0.2608813619323937 -0.13736582219993781 -0.03127701790098789 -0.30629607855721624 -0.028287550871505293 0.06111778134698679 -0.07783835727593715 0.06435800997949483 -0.05214640236302371 0.08234422422358653 0.224358854698191 0.09652572479844877 0.055271126414686705 -0.07637002468235761 0.5112909062710489 0.13923372638665543 -0.04227661288213798 -0.0034488909169021996 0.09236809016405698 0.006893537889262981 0.19092781287062363 0.07540702834834997 0.03169007432926642 -0.02106216824222258 0.044850130261802346 -0.022681340101956347 -0.11880849139445236 -0.09758533466919612 -0.13039209449933428 -0.3786413690558781 0.010710329467242 0.2646124302619904 -0.2281328207577629 -0.2911605659087744 0.15653971389692323 -0.039149669982584595 0.07880535265739991 -0.03408787280277793 -0.2283266796996401 0.04175567251707287 0.2705044943178154 0.013068793071795821 0.03811621639965923 0.15401331623842 0.11768733926423422 -0.17272587781105797 0.043444889446513445 0.08912714562773977 -0.0743215854199561 0.0878060413014654 0.07883256879727384 -0.015880756686769637 -0.20549275952950535 -0.10707182713911072 -0.002144550350145301 -0.09545966507875815 -0.03603993628234274 0.036159850798809026 0.032025626629639 -0.10816149224559513 -0.0036877767553378463 0.16764980844359442 0.09137747247481984 -0.1133809478852242 -0.03454116794885943
ciod:$$login$$chdir(<*>)$$failed:$$no$$such$$file$$or$$directory -0.12410022703631243 -0.03445389251136915 0.05655634189602717 -0.03448246845212649 -0.05621095998428982 0.0948548258098442 -0.046805886535492405 -0.10721323389738299 0.10176150965614353 0.009588612417822315 0.16918449886938097 -0.14994798811134052 0.011462012744711002 0.09186807955485254 -0.017957015079854817 0.18754103721480136 -0.12366366584564444 0.11627783978702921 -0.25693943965942123 0.026213648152189344 -0.4375230122085477 -0.0909635533716296 0.058440363004480404 0.2007948423465351 -0.10322979000138546 -0.10906908825316976 -0.06781978917245268 0.16428768367801244 -0.07523606727991224 -0.0075596451587380395 -0.11386849327343122 0.23585448039579804 0.18905506551092588 -0.004949795472804465 -0.06084743879257369 -0.00917982489921601 0.2579099763754081 -0.059745634811577054 0.03354770977672958 -0.03132597424015147 -0.09957404030528266 -0.016415112002772143 0.035172525271052316 -0.04354924388295919 -0.06760278295034453 -0.1273649294283171 -0.00481997263190536 0.17454937280354904 0.000893364085238782 0.1351871858614329 0.0450122828098837 0.31518811694283677 -1.9655558610697632 0.03950610691226904 0.20774260277278084 -0.008578673442844048 0.08945587682864914 -0.18709688752143402 0.06447433306207354 -0.14325629029648224 0.08447493096525563 0.06086460357960809 0.001981187820576614 -0.18598176102975741 -0.12413859504790171 -0.10826508828029047 0.21110265879682144 0.08719678042967229 -0.007824027150190527 0.07160845717307346 0.07595907165818147 -0.0755253071927035 0.00023762444474933857 0.14439305233312139 0.10693315835748957 0.023318960171870823 -0.11107840014660475 0.2818932299992008 0.08024669249738427 0.019091461407031565 0.01858367798602762 0.05308622235884643 -0.021199047184885005 -0.397203108579479 -0.10549630839796205 0.08932572122796151 0.035535304750080154 0.22026083093117213 0.19727447822673932 0.07283275102201221 -0.006644794748058121 -0.0627966580485671 -0.3862642284133727 -0.039883138318733934 -0.0054030265638243605 -0.0754543156114913 -0.030510468187052178 -0.09964087408275858 0.16336691048176333 0.0171507988235418 -0.38836929803293047 0.19187254670351342 -0.007853335217794744 -0.18216465960201828 0.005934352858954564 -0.11161675984024105 0.15154296908111417 0.13021292433846435 -0.082409159978626 0.10237726543944535 -0.045099766345168074 0.019793221541985827 0.2992024569789117 0.08569839712741315 0.047583476828070584 0.04015775316258921 -0.013630966818169055 -0.13518077917978588 -0.20548643627313765 -0.5317388079602942 -0.18513421780231665 0.08831839571923257 -0.030390247205353244 0.1565952417514281 -0.011493611431523717 0.3934281335939761 -0.025185878568185164 0.18537555957808927 -0.0014686170159355725 -0.16031460087158939 0.15921054144410893 0.0745225770529075 -0.09958227269450012 0.19675266158036056 0.010673695123931702 -0.2393847670741881 -0.06516793995816819 0.06339983844033721 -0.11472236830653787 0.01375382239844122 -0.33913105342972566 -0.05150063379458578 -0.21555076709340154 0.40564991735749556 0.14980132162508397 0.11013305207010708 0.2506811452513036 0.06001815836902999 0.0025149385986720212 0.1740830555747268 0.024827100540938393 0.038758381793159546 -0.041088930314608474 0.2950709797472226 0.009567600691103382 0.208009872891171 -0.07651778874185011 -0.09765361118141097 0.09886371544049986 -0.0213553303660842 0.18423706019676697 -0.169434560630829 0.18458916740377523 -0.06047223856279468 -0.09854549949883062 -0.0036367522692586016 0.26048634970175283 0.01165006480883106 -0.035043130883407 0.06136072970294305 0.07598203597118285 0.03332920815652257 -0.017481046298263594 -0.1378764947234935 -0.049187505721690325 0.13719754656383457 0.5629835699661571 -0.09062145694824339 -0.01981584160728476 -0.07422359836452318 0.21447687604146806 0.200436200251351 -0.0746148852733473 -0.15648044294077104 -0.07867076795130631 -0.27250088015227913 0.1457950163042152 -0.15404874876120989 0.21187580864643518 -0.033828650708693314 0.12065539739614545 0.2857796497292235 -0.09828018581924267 -0.1220339197739935 -0.1275106662560304 -0.13198321623454756 -0.010432509799735541 0.06456743577915504 0.24962892902317851 0.021279633688463254 0.1563733427939646 0.16950775833596546 -0.18622426138561038 0.15092208303788635 0.007308844034258244 -0.09804334076774428 -0.11559045497213324 0.06873206570278169 0.011560221498918319 -0.016224606474825473 0.21759007826460236 0.004146786211864366 -0.04397700923862263 -0.2447216942826287 0.029000740964370518 -0.015379913682891502 0.0564267576046058 -0.18466705897782631 -0.1796238910164898 0.1603139714948032 -0.06775256074523765 0.06088468785830389 -0.23212864319664375 -0.26269068071513507 -0.059711012202318815 -0.3529065898567899 -0.21272576427186554 -0.13612627633621435 0.20461733490426895 -0.4370431265349451 -0.06717831999508338 0.04655154124738424 0.6550214107952823 -0.08551410389626539 0.031263465009502084 -0.030412419140705763 -0.18609407325869542 -0.028816626150790964 -0.4641870730500741 0.26731716183010024 -0.04699182434331798 -0.020331989624746437 0.3795926204325677 -0.09407592426670372 -0.023722525172634425 -0.05927779506596262 0.1177455735866464 -0.09752330682573904 0.08548800365337451 0.6609459698745357 -0.1279754008702923 -0.14343336883198124 -0.06468172395139545 0.22844624284842097 -0.12199828403195821 0.048935524535230604 0.00902636810121395 0.05809998291029946 -0.07120574117969763 0.09378853454628663 -0.034592414346367166 -0.15822529620730963 0.05183134919998404 -0.14126910810444093 -0.5352969069126646 0.04999371596172141 0.024839980055183467 -0.1852875348211286 -0.1412912040242482 -0.020339724918205397 0.08427529280214441 -0.011130078475272774 -0.01544970128309682 -0.11530229373090677 0.07488493354344139 0.2261539992235106 -0.1413230504903284 0.09355016472894223 0.07256853972024588 -0.057804401585521366 0.1288453617704856 -0.015254173908322913 0.18739357653426725 -0.12161487096208524 -0.05890341084016554 0.015881651960337882 -0.06800314853272738 0.0975734192582751 0.1437706929651692 0.11242343598432086 -0.13526411710253175 0.008101329485287634 0.03681522135454355 0.08330996768413006 -0.4036387922644856 0.0850775294830115 -0.012596482642961645 0.2998252701075833 0.12217704595783287 -0.011999888277048528
<*>$$ddr$$errors(s)$$detected$$and$$corrected$$on$$rank$$<*>,$$symbol$$<*>,$$bit$$<*> 0.02522220859983225 -0.13542381961146166 0.047490317727295915 0.06631804283359936 -0.017355147433413286 0.0838513824586889 -0.07129237261004671 0.017646328245015955 0.11879464143435743 -0.03339573659963388 0.14639136165244102 -0.20272377402029657 0.136348483700223 0.0008188856798902865 0.10281220537125389 0.06849057085662133 -0.14044273131575924 -0.028192816795410466 -0.09832594303738834 0.021026666887138622 -0.18855989553467145 -0.13794217023077604 0.03874581676708558 -0.015505046255625668 -0.012937833593845753 -0.04587505308071445 -0.031772036950733634 -0.0183969655689789 0.08816591219751443 -0.0747814970428076 -0.025034962786027907 0.06612237064645798 0.05789706910846557 0.0505531779051732 0.10182624886589808 0.023445483354821765 0.0873014454825297 -0.05940185616884601 -0.07779000179833975 -0.05982628868119473 -0.10248192895524819 0.0017338445618399166 0.011912367529535095 -0.002692423221395939 0.10032307956801699 0.05846290816322334 0.04304742018370702 0.13333882180965767 0.05542719822221758 -0.033403553285669865 0.05295286072232698 0.07120497977181837 -1.4111975284701275 0.05264714828755636 -0.08530289282256874 0.07413081758662267 -0.06858069540504823 -0.08114604317079842 -0.0952373074232622 -0.0023625740881089013 -0.05474567309724368 0.05908678744323506 -0.06724846813535207 0.039130011248490845 -0.0697583926296437 -0.04962281338292105 0.04204497529464217 -0.08055057706229207 0.03601405344623877 0.026707615735514306 -0.061173064436099274 0.034431193134125355 0.0682348047411786 0.05146965655955299 0.013877230625272935 0.001865980005239843 0.04700007961946091 -0.08521153865040003 0.052155568220430146 0.04329232360109063 0.0223159613210279 -0.15022625186284372 -0.13307767804386272 -0.4523723742050705 0.07780739620452769 0.00726210299742823 0.0014789697804433195 -0.09082923291914333 0.11883551954197703 0.008143385231171595 0.10003332108442345 -0.03198464822066337 -0.04909749999618709 -0.1369516544905056 -0.0644470709191036 0.0033451784530551913 -0.07565941849164959 -0.22030112743630084 -0.0398039330553534 -0.011014962263629455 -0.34448568584496364 0.11851291739293643 -0.0028575934634683317 0.02584843811457249 -0.10723500455484086 -0.003793643977620607 0.02133306885259549 0.03283868445784262 -0.03094695710392252 0.045437339824238046 0.04654693486992971 0.17335334798009042 0.09415569791148891 0.0642924896192808 -0.13476438885883146 0.017321281606354755 -0.038105901070522 -0.04734989584651119 -0.0936655708745538 -0.6716596797771845 -0.04685273823567338 -0.04486893980442183 -0.06271280107018048 0.08520426299560274 -0.02273073741771542 0.3698165722944982 -0.027189771485289713 -0.03721804755518231 -0.06692299990648323 0.09165666733515904 -0.021812956159075175 -0.12498587240492484 0.07305901917769618 0.13400631631237606 -0.03714188309281504 -0.045102156829703095 -0.13267341801472207 0.013066948903191277 -0.05794023744488395 0.04950911686256734 -0.1846272270732774 -0.05938057726654384 -0.0888621533951548 0.5778857127934619 -0.033344065561578304 -0.10852969773648788 0.22084588583458875 -0.081267289678499 -0.09946812725956898 -0.03949791293189389 0.1202287438980883 0.19922739419245186 -0.1460531856006601 0.03256784812688041 -0.09971308973543484 0.10129054902804842 -0.185119725369853 -0.018018735395082065 0.09957008054028929 0.05486779436877037 -0.01298249234179183 0.08951608107942177 -0.04434555803325617 0.022329947020781477 -0.06519693715065543 -0.05560453934194523 0.220260466357722 -0.020040131513802392 -0.12860911392316707 -0.037314429173081934 -0.015340333056041443 -0.03481741791498588 -0.036223765320129254 0.01595790280114486 0.14867442920825696 -0.10877160954613971 0.45270688150482963 -0.28739330410377767 -0.0576292073981981 0.1319991529477325 0.0026855397816208204 0.010800315115972585 0.038006961437757864 -0.167351277448871 -0.11365608711835716 -0.045494029150976924 -0.1264621580884161 -0.08264571644000095 0.18698073533335818 0.05088366170651529 0.12631424311920234 0.02319175017626857 0.03735650728001918 -0.03369264921873755 -0.017559192890224187 0.11417872612164102 0.08958439141066002 0.0619455481506085 0.23608129347965875 0.0901888956286937 0.008765838147615663 0.22223526845019645 0.039318149464178 0.06676813552689453 0.036113490153539325 0.06670927353445086 -0.05477342194604734 0.05487022842674789 -0.0015842926979159925 0.0016122355915729279 0.15921011358961554 0.11582510430575729 -0.006564671248980164 0.013540401358003622 -0.03226722257498431 -0.027261141175933708 -0.06860391053303007 -0.07411382320819267 -0.0945352257971498 0.058254841785070614 -0.028608892088162002 -0.07198125152215754 -0.045309678089245665 -0.09488209315206736 -0.15404103965042565 -0.24701110628546064 0.009270736969833424 0.11160717425822439 0.05375801725295835 -0.19554269845172062 -0.20295835052452607 -0.10660799166759342 0.6967491029301767 -0.20377660879354703 0.015274925195450966 -0.17132985841986978 0.09925565037998393 -0.11229674268223289 -0.4868897340444914 0.014078520511193793 -0.01587755863315004 0.04833243638201277 0.04789597346552802 0.00703537715271685 -0.1033416398591632 -0.08073329632350681 -0.14594541175682538 -0.1057891529008884 -0.012701554100881796 0.7535722020224359 -0.014202256220167388 -0.06994121321767213 0.010991158714315214 0.10910214215446999 -0.10498993940563497 0.15220400846936477 -0.15408801376807463 -0.018772908181652934 0.016664835503887428 -0.06719437251963453 0.0442088629988804 -0.11600002363557713 0.04785377518027306 -0.08735265011810205 -0.5785689323764225 -0.08871993682807354 0.10729520283860897 -0.18801561610139977 -0.19215486019103215 -0.05577529350275705 -0.22937577643844126 0.05903702514869777 -0.021473757257416605 0.06594292046567214 0.009725458969697145 0.06744056862759124 -0.03477035840947755 -0.009578182075974256 0.035884532351922106 0.015278998029655712 -0.0229193576195027 0.022499455027836023 0.009361884873027283 -0.010137472363348127 0.03545698193053896 0.008074718399436867 0.13435099095074363 -0.018496260776138487 -0.11698557998814918 0.1189899841764614 0.003965026832125203 0.016181797865398178 0.052156427750154236 0.13255679182265484 -0.04108439977475199 -0.055990766292863835 0.14294401014077743 0.261923789375717 0.17717506747267053 -0.016144252882404005
data$$tlb$$error$$interrupt -0.03081926728579601 -0.11278114652090361 -0.014280139500968486 0.1441683457277444 -0.007139242680373442 -0.13337888269860437 -0.18420018895716253 -0.18809015278198327 0.11688141676788899 -0.024913392431129597 0.24369329852340804 -0.09511188516444247 0.01881547842735383 -0.005163328799891009 -0.08263541201841848 0.04433521724148622 -0.11180095056489006 -0.10222595532006343 -0.1352946176686141 0.03356197700326401 -0.1715278212631624 -0.16824833633408431 -0.0038981875045731133 0.11529941696904927 -0.01636165395038554 -0.07097246190390952 -0.05945281041112334 -0.11110749993990546 -0.01437084751758651 -0.08477044962588327 -0.10165207103030512 0.14478058542037214 0.17589596620308945 0.009580133275240795 -0.019723572327612713 0.007285082609721917 0.15911315900259387 -0.21029968882573674 -0.02629457366493721 -0.1837771010056266 -0.05701462192706056 -0.058917669293636975 0.06330463426357665 0.13864890330780197 0.01579736448260019 -0.041683509766091684 0.018154153273130927 0.10939216201432082 0.012401709602712668 0.09639011854650698 0.00203336191769303 0.027403221686883084 -1.0199509867622085 0.026576757487011445 -0.06587736832755892 0.035521197721024855 0.021497053297764197 0.00722418972132919 -0.15317571263034835 0.15935837687549775 0.052886290088499106 0.05179013416282567 -0.15910478741343595 -0.04957768838736054 -0.0982426958363442 -0.016795919355508462 0.04610239098888842 -0.057800879915944105 0.013417004468830762 -0.03177423796551721 -0.18948395270315221 0.10848689629964903 -0.17647308204375298 0.007031949359379246 0.0496470249085124 -0.15883898356896795 0.19518540960145703 -0.023678826426049626 -0.0971280921452447 0.16275291099655328 -0.014861922311295558 -0.15019677578740753 0.04118344178467373 -0.3158466470887171 -0.0033289106126547854 -0.06939035250656767 -0.023490223240727696 0.032605036232669256 0.15346351441998796 -0.019227020602005086 -0.06906954601695095 -0.09780563532809443 -0.043517677105482655 -0.11174282663768798 0.06912274224767267 -0.16553077523024612 0.02809236367128639 -0.19124434361468826 -0.007493950767936526 -0.09651122432706477 -0.2655242158030703 0.09516671310837252 -0.03790032866827601 0.0006216592318958047 0.09331025291843574 0.06281974706261505 -0.09937133848895442 0.1439447179717321 -0.03460410138724112 -0.007425889155695552 -0.16016154818439732 0.09963392578586244 0.10610729716482477 -0.029711210855440096 0.012197382660606177 0.02337380747552705 -0.06265034257760313 -0.026459009308277447 -0.031734509159932395 -0.45694005623504896 0.117409693578063 -0.016304556450689185 -0.17983953931732113 0.12185545046017002 -0.08924698395070582 0.2902419422833577 -0.10221489482928396 0.09036175430845893 0.04016580198155392 0.004388612122964291 0.057455175175703435 -0.09570252190997983 0.11045132071530557 -0.01466331921130555 0.08030674909948274 0.03758901434292465 0.03273882898116864 -0.02681389953950451 0.1696992519417956 -0.008814278947163821 -0.13472265628645688 -0.224640721467664 -0.1711320565571258 0.2690925336278078 0.11017470692527338 0.013586054671904522 0.07574203054569044 0.04367148569523203 -0.015945282866389847 -0.07659111321580671 -0.02425657607339151 0.03349015102509862 -0.09565544989470001 0.13420211748352306 -0.04771970048119749 0.14161980455082182 -0.1660767532227024 0.08274433493714156 0.03991044056202793 0.09126565464407654 -0.039102052507415955 0.14443282650283726 0.04617271862436246 -0.07677420247694787 0.013810904769192799 -0.1159696326904676 0.11654262173149366 0.05578112038913653 -0.09672205867562952 -0.00018074523793703418 0.1331114669550229 0.055003588784084144 -0.06439348076607798 -0.01454124613680894 0.02401332171846677 -0.05199172145031087 0.37541352150615026 -0.119929194604732 0.043920094633099725 0.07351360323776102 0.021998106386890155 0.0007130469551616635 -0.0004278269443277749 -0.09922094277662352 -0.19094268799392777 -0.2530814823839728 -0.019254335383800916 -0.03922081207124045 0.004200445966907024 -0.06686231861032534 0.05181563839757795 0.004379542692162244 0.23595306156156126 -0.04282124362467435 -0.048595580225595375 -0.08438001951596408 -0.12193879007614856 0.14101995180595667 0.12966127279403036 0.0007889328620154026 0.19064139028598098 0.09675881446359673 0.007483371399178804 0.011243890205155843 -0.12575133516468995 0.02565340873634951 -0.0827562910182631 -0.09344743500104077 0.12548230659129597 -0.044743191942870617 0.08413652919039155 0.12789323562503893 -0.09675351874296749 -0.06836921070436897 0.0030149394374953333 -0.05192273629312252 -0.028831272278180553 -0.031822669583634625 -0.04500199997814981 -0.0867638392284319 -0.030836571488178248 0.030497665738857045 0.07305272100933562 -0.08069377251302375 -0.12852660344840824 -0.12215694408367278 -0.08608392906215687 -0.014045160561254561 0.19132233200225957 -0.24655745354498979 -0.20064108069185874 -0.21746470810361895 0.4556294447903695 -0.10671045599669408 -0.11341745450392043 -0.18481490680120952 -0.02084023558975757 -0.11611714745628289 -0.3336956554924621 0.04738225520004498 0.004483347618966085 -0.006800695094736454 -0.013641456373452914 0.041418855376128015 0.022250595661732625 -0.03439080526689078 -0.18811504419954375 -0.09180996579574138 -0.046221731210270095 0.4453356224770615 0.1290936553674237 -0.12657249511513916 -0.0733130867471489 -0.09030831715732215 -0.11858977980698619 -0.029462459901322825 0.16154569939537117 -0.10469918220446567 0.05149079878404603 0.003185917741204986 0.0049642465949262145 -0.16283255723148587 -0.001139174763707243 -0.06052515484132431 -0.420254077886628 -0.06188721941254839 -0.05316613453441634 -0.06130306159156351 -0.10415172258895607 0.031750432749607704 -0.18828204061539178 0.11589428524843136 -0.08173495224544723 -0.11640775093124237 0.008926325400651726 0.0733837985712138 -0.061320325854097815 -0.1141484595719076 -0.04006053838252925 0.10327315414365304 0.00606745032926723 0.0690246619858632 -0.04410978606116387 -0.03136333100360402 0.1179418115413664 0.055827102880156826 0.06101720363213618 0.017346359137569187 0.048411363459816864 -0.04138559692910839 -0.13253165605941286 -0.05128361955381194 0.030193675167797432 0.04814988053102308 -0.07828230438648438 -0.020036604545904134 0.06956779476286133 0.15214560061925897 -0.15881918927820224 0.03346959616553057
ciod:$$message$$code$$<*>$$is$$not$$<*>$$or$$<*> 0.014177162933961969 -0.01713430729137035 0.06504055670394543 0.0539427246902448 0.03889520469667653 -0.06786014421663056 -0.1335609833819809 0.012501732805479988 0.063519164623998 0.06009665821089729 0.13807565058069327 0.007521582344202979 0.10699085035980717 0.040167981243108664 0.0031439878112165046 0.05334409279159523 -0.04086514909431062 -0.002162804857611743 -0.047820009612308916 0.06572930310674924 -0.13175446684546693 -0.1384088149827501 0.026697327458935778 0.05720721414576237 -0.08844119982196107 0.006289587431081253 0.06712992239984007 -0.08489876419223463 -0.08618796137438477 0.082134252886947 0.0029477122897758547 0.03827004081988291 0.010273174666508192 -0.025344467329800672 -0.06278652490957196 -0.060061613471757126 0.010224424584473361 -0.02902824709322179 -0.06968964353116601 -0.017609854784155304 -0.032147371396355956 -0.003987805183045728 0.007526898943211005 0.10531139537920524 0.040322820803871944 0.009454452454140082 -0.13015804847669143 0.06169690329346282 0.017390851946215494 -0.0033972299771275506 -0.08688945854800609 0.04733365599242126 -0.9651685027973267 0.056055084784509726 0.08708293678815571 0.04186940133967582 0.0821122839576417 -0.11252151582982665 -0.022543136359689558 0.08705538228741523 0.13720546674531559 -0.06205527620568069 -0.1783826458763214 -0.03445881415100916 -0.08734354042795407 -0.03597510300587833 -0.0141988877684697 -0.0359162111739734 0.11163795100399035 -0.07570112831520676 -0.0405393995176977 -0.06035473329654869 -0.09087230648779608 0.10183642650086364 0.05650985346756644 -0.0836082338882125 -0.022291189984595946 -0.059198899919584526 -0.04037096678443634 0.10787451615532742 0.04283459670760309 -0.11936690979106954 -0.11620171039570926 -0.3420793091476597 -0.016142209518330838 0.09705751352920217 0.03579820914853193 -0.012571367008431877 -0.06960339163859533 0.02512513219294654 0.019962459502573783 -0.02966894717765386 -0.04896600423043988 -0.1563077693541863 0.014583120630933064 0.0899630310988427 0.04312054904293968 0.046116367183763614 -0.048530052095112054 0.0708548161477455 -0.2547228329214526 0.012973378242921744 0.007715909298054425 -0.040917329108139014 0.1644069437190644 0.032598546316327394 0.03129471265021653 0.004171043304578331 -0.05346677620434138 0.03182608470503509 0.04513154992896953 0.03831765670381808 0.05597515610943144 -0.02321092195032322 -0.11816808500227956 -0.07863846552946592 -0.027569264391107823 -0.08495144837772341 -0.02065866259209658 -0.5425634812405574 -0.10737751658196493 0.03505903468138284 -0.07230347497657179 0.03682106948126741 -0.047177989049566174 0.23681054697974707 -0.0623199933942003 0.04335140993078241 -0.06479190778881846 -0.01813309637776628 0.016366771132739752 0.006625935779462392 -0.13363868128900008 0.05018335901267239 0.026894770968738293 -0.08121637673908931 -0.048203950697644285 0.06547313038352241 0.06581644720084437 0.026388457250673594 -0.08928583327063014 -0.04926699668345655 -0.07857153045902755 0.4024266554029958 0.1401841553690309 -0.06979056298981016 0.09730055151404393 -0.017422266336971068 -0.052717709827731794 0.03067990975724403 0.04315148138039423 0.09789548528983637 -0.0463117274541401 0.04995499560234294 -0.017357114639517883 0.04730355823272692 -0.10187170048475544 -0.0008200246304079658 0.09146016606672247 0.001842357567350861 0.0334228782020463 0.13560925522656675 0.04034144917830028 -0.11322529187596775 -0.32348441669750605 -0.003175415862051439 0.18438217652566302 0.0007771265436348168 0.0006512898106985077 0.002467389196780623 0.01587626502164778 -0.050013038486392866 0.06593480976318716 -0.034103064347170135 0.2120999034255284 -0.02685395056491808 0.28567834316824575 -0.2543446130357342 0.1439247743581128 0.06070150578769468 0.04668082944855283 0.030048000325766978 0.01619994347242108 0.05988359069277352 -0.029877543725906057 -0.009512118885982416 -0.01421511967117352 -0.13459844340919563 0.24934249943448777 0.08400342607873869 -0.01177845017934484 -0.1021892900313557 0.07017351657525098 -0.05829940716632594 -0.11555929624491085 -0.031120629502069452 0.0703853829743063 0.03301893208324732 0.2766562673319334 -0.028833992472929896 0.02599723770626805 0.010712873538917457 -0.1397545665102009 -0.0016752761813944965 0.007452304165851577 0.007579757410875097 -0.0021421985208102054 0.03772443505215123 0.08777606923349718 0.0023657824537727697 0.054756291121701786 -0.05994663659055471 -0.06341544701824585 -0.004061840260327441 -0.008296527888759618 0.05804585361141848 -0.030441944459422676 0.01092102386690196 -0.10972573070818505 -0.016914061952400455 0.0006694331032465941 0.01521929688605782 -0.012770334441513716 -0.0005821571413494328 -0.00924468751849489 -0.24651717118130415 -0.09274512380147709 0.08994736647635715 -0.06260788012138227 -0.27893350998420263 -0.07879030435407763 0.041874245672837505 0.5014018702671275 -0.019573211668238402 -0.054548376571368726 -0.15027052068899355 0.017913214969382352 -0.00011667259113530559 -0.3835039087872102 0.12859723761408137 0.041524661428061715 -0.043654985774465895 -0.013504595534854252 -0.03622603938470328 -0.00041316020761117747 -0.09025583324796507 -0.046880857861477165 0.04828555365956676 -0.004478262767723109 0.5621726663285502 0.04305299105213503 -0.05049300264268115 -0.07746684986051107 0.0943512681866625 -0.08196834192398554 0.05225347120110334 -0.10534215077383768 0.03416794436860475 -0.021971318385848666 0.031017552129459912 -0.017564866179888686 -0.027545779906868052 0.09589963223084795 0.00829887726581955 -0.7656367615088222 -0.019455548936133913 -0.011558709477059576 -0.04844192556324611 -0.24027144875134104 0.11499595823078869 -0.07760088652415015 -0.06694717008656989 -0.09209248837170446 -0.07128212104825712 -0.031089053708210482 0.13490055824499134 -0.09817202579667748 -0.044643499684235574 0.03623294969057003 0.08944019954692907 0.0525066190534121 0.05120341755976172 0.11689562782838438 -0.0323301356899562 0.026114853861964948 0.07170386968073891 0.02668097397682167 0.026605092798084404 0.046475351919498586 -0.0050297405533029065 0.0791336444325768 -0.048055733812890446 0.07204629355943533 -0.004345111861195253 -0.2591764891117745 0.04325160993396989 0.028465607501124524 0.051283588285788426 -0.014498375483855783 -0.0812918348690918
data$$storage$$interrupt -0.051595404480830796 -0.3007442101542483 -0.04133016328684716 0.27534049311846787 -3.194216494013108e-05 -0.36753809595903475 -0.06282601114450055 -0.08657078921375466 -0.14111867770353267 -0.18436976527205778 0.3118472092349408 -0.15039797299700922 -0.010356292447535886 0.002017085919712114 -0.14001525808924287 0.19838613151975154 -0.054754712546760606 -0.2287421014399646 -0.6068984423835434 -0.010833059484953313 -0.3457160693267106 -0.1724801329974516 0.09143494886196579 0.43768850301500567 -0.3396485793168371 -0.06947886327253824 -0.22510676920258585 -0.2678934510473065 0.05602912494568743 -0.11904956268945412 -0.3020200718353874 0.16286644817376375 0.32839350253522503 0.04387336819003119 -0.181568455205202 -0.20265962169766322 0.23115719611725927 -0.014381855446893965 0.0046463947004182354 0.02723546487030412 -0.3367016753800461 -0.32776047808468833 0.3658662592675345 0.09488665159096252 -0.07710206638216453 -0.3104393618516026 0.18274304395573965 0.35595930612427096 0.21187270555182902 0.18562378594798873 -0.14428799743519174 -0.008150505583039716 -2.1862121623867923 0.014235083479520225 0.40583483938757786 -0.013120736283601265 0.15619740494808393 0.15592815249238517 -0.42647683627402533 0.12490815901891489 0.012046117234962055 0.17625566047723137 -0.2847144203112799 -0.03495930469917752 -0.1547847787606842 -0.07499636439914903 0.10211211976995241 0.20223134356378392 0.07539576928550398 -0.1880668371787263 -0.12487449411404081 0.34099196412353555 -0.2735309614799132 -0.043926899595051694 0.13998248654032508 -0.39733551302245323 0.20395279165948835 -0.18164393153945269 0.12677334705082993 0.30252342737933247 0.0712531032035705 -0.3089448434978392 -0.031221948992693996 -0.5710195913782207 -0.09883890103217377 -0.24085420399346003 0.18325273644495843 0.3142527949645543 0.4871957828276597 -0.23605837863619133 0.14804534436375522 -0.12101271208890826 0.1608214503274481 -0.29932256603841717 -0.009363614499422857 0.04100675539120975 0.015511599877493686 -0.40754701086134404 0.2505217089972529 -0.2876645205088505 -0.6669108240101708 0.043260813694222904 0.011900315250720092 -0.05140467229400971 -0.015746307041147815 0.3470136676660467 -0.15137838465399958 0.30069774137329075 -0.010282859280157208 0.14351454429059549 -0.4343200272989034 -0.03919563752313078 0.21716309347115986 -0.06128904612539519 0.12132198024480335 0.19084863729473192 -0.04703846418336417 0.2647672465335849 0.13500061100969368 -0.8075134059454905 0.07082306056229135 0.1478502784397792 -0.18141239787917213 0.2981572232343566 -0.011041069297367034 0.6940235872613735 -0.04800755506869705 0.01812131756855967 -0.053483721935132594 -0.13815081916874264 0.4732614160556763 0.0011260695876984007 0.8415602292006236 -0.18072101632547294 -0.33842347906193837 0.05990047412204246 0.2426306562912428 0.16348281603651632 0.10026426767670717 -0.3353248160486529 -0.00043811141231623165 -0.32285988058353937 -0.2825814607023349 0.6258561485830129 -0.07613119730331314 -0.04915358847272194 -0.05750450137229084 0.056823334096707666 -0.03516039097117426 -0.1109307737788612 0.03740455307455163 -0.2524309093372431 0.2744472458261781 0.11202155440999707 -0.2543769915255559 0.23799137008463675 -0.05020504535586008 -0.07499166755279493 -0.36268742738742216 0.16935077387442563 -0.06816775991067724 0.037866695067394644 -0.10522765970970385 -0.3942069681435107 0.005849124767415545 0.048286699375224396 0.2793196767486512 -0.033688840860307254 -0.05528690483348248 -0.006306661714880778 0.10244942950961741 0.18399187222042612 -0.15518250371206704 -0.0009528766620635204 -0.13111391949883938 0.011035327983868718 0.8651450494378136 -0.49503736106349366 0.1260722405116359 -0.13505663351544356 -0.058910827173677335 -0.10984422919302067 0.18347826059016337 0.09987943611540412 -0.4386287299701319 -0.5153801099989114 -0.03667193756042807 -0.10463103290783131 -0.0833503356222543 -0.2561651748501321 -0.2775954851180698 0.3026934301189945 0.21375446332615267 0.3033324221261335 -0.07904864998514093 -0.22259643143104194 0.056426990632583225 0.4154670083092393 0.4065741067657934 -0.054388668233886064 0.5688094308313554 0.10999695441005211 -0.1326032380013152 -0.05327304490118996 -0.41267729277913523 -0.22694753711578794 0.2041409966157637 -0.18136233224064116 -0.1220865570977376 -0.13991565454767296 0.14404422369520015 0.5008806855353138 -0.18296774197959087 -0.11879414815374326 0.19129178976815822 -0.1432060097655709 -0.2233294825380277 0.20582506201491396 0.1557945545474609 0.044434032342472896 -0.03715562859553263 -0.20320878061634826 0.07018482471802133 -0.004726236000433184 0.2035919240716451 -0.6166532509865836 -0.18014330138480053 -0.3404217703618599 0.4083459863319878 -0.21823400517247496 -0.17488697749956844 -0.12411905143381302 0.9992635179635682 -0.4107090797386338 -0.3176669969165571 -0.50413803379377 -0.2968188939800105 -0.34281451640040417 -0.7570374772973069 0.13481901109148167 0.23900245213087806 -0.17099997476284806 0.02879045404647077 0.38407301475425065 -0.01612042770829042 0.09770078828410447 -0.11117432323461429 -0.30984312293642347 0.01422880983695047 1.1076598203811319 0.4135110034715618 -0.2119100807124621 -0.27829609277535566 -0.4474479425535497 -0.13396324148458458 -0.0983609849416544 0.2313671229882589 -0.3111075500996111 0.2996836692958439 -0.18866173496764743 0.12579112565142928 -0.19763152941809373 0.06511936385746049 -0.1253828839065884 -0.8822601653739027 -0.012747786724295024 -0.28133588944863763 -0.16487775538788665 -0.3488460855758775 -0.22242705671170637 -0.32389496716270644 0.051370036730155 -0.4246670923028898 0.04689601602828559 -0.05102165177924965 0.1572374235111566 -0.30703727408997755 -0.19333084222101962 -0.2760188105051036 -0.14965790219362302 -0.09978681971749873 -0.10723633599529575 -0.1918564552451331 0.25695403788486093 0.2076321196450438 0.34487626950175243 0.04548347392884655 0.07076309443108872 0.11579453655080163 0.16305892792595195 -0.41219868741907034 0.12202001977105306 0.07188034107157257 0.16457574129421684 -0.38919481729813465 0.39566807036787643 0.10699544458074167 0.20379539673596775 -0.20353085388403347 -0.2808364144314779
instruction$$address:$$<*> 0.22019436712124563 0.08280309803611476 0.14677071156407007 -0.08217439136500092 0.05933010672271838 -0.3809312338037857 -0.06901715473294728 0.14874891551983518 -0.10434149803312034 -0.08093765515763936 0.09624540907400085 -0.16658097116662696 0.10162457506833097 0.22869783110247704 -0.11748636824146066 0.12591011470398178 -0.11525574271172113 -0.08137629789308387 -0.22781523959351904 -0.03383134274463784 -0.22088982122227377 -0.35031972503595055 0.19451265624081274 0.1605837887226653 -0.296740658115421 0.042537293732924635 0.2818035355267517 -0.2622544555837161 0.1643105542740408 -0.08708398098960271 -0.11323788218612635 0.2732360728549853 0.2569096752711476 -0.21991927962879698 -0.11715627458005681 -0.2865665175643699 0.09124143414199022 -0.21102039482477403 0.01716755667771915 -0.009745271790629145 0.0575219362281823 -0.15307011535590814 -0.007520343025680054 -0.23738333939193054 -0.1401783700296408 -0.16477484610337173 -0.08963389666391838 0.08129457009309385 0.016610534245538787 0.21555364270456367 0.041612922077511875 0.3016276599668928 -1.3018824363018642 0.017552890944111027 0.02153724931451298 0.18026048897237892 0.05132799869195678 -0.18189383183502572 -0.2691261747591873 -0.15959984331832797 -0.10294342980240397 -0.10781186444330522 -0.25271085419669836 -0.38977969367115234 -0.06410735216998423 0.04014235300441807 0.09999915219011556 -0.07538947159155579 0.35420669342585986 0.15307466143820594 -0.07365249496621593 -0.21027071600823352 0.0044948201377968885 -0.24110790322133668 0.07292470061470688 0.07030267482473522 -0.11204495790417085 0.09588396955392013 -0.19894580055073152 0.14696590374944826 -0.017094274381898943 -0.07504186175905815 0.27343171241475767 -0.3457313361941887 0.08926629150698154 0.08259452353754754 0.2653164310823134 0.19200333488045815 0.17808298047100232 -0.01095249463223339 0.0689209154349473 -0.12789535754771963 0.09092860071797572 -0.1262334175657753 0.3184511585026081 -0.0726180543252201 -0.002869844633975549 -0.0035041484268639456 -0.024704556275705898 -0.052217828374919256 -0.47956682458563404 0.06817537047631159 -0.11292470103073363 -0.07192527081822703 -0.21513942023516872 -0.1726333160702324 -0.07938091184527363 0.0017121656325689086 0.16116743314286458 -0.013693816365400686 0.1919160451086947 0.23833453232139395 -0.09136808155453569 0.13352837322989283 -0.08451643584884787 -0.11221434470497409 -0.04158058182703094 -0.29976333262090893 0.189035141024187 -0.7158952806377354 0.10708459561153454 0.14207529355981002 -0.022085826242523563 0.3449387831963735 -0.08408608232688461 0.3858516484428868 -0.09382356892609935 -0.02302065368338581 0.11274286966087278 0.025075066462710634 0.028674090566720708 -0.213104555405889 -0.14230007725628985 -0.24498548836294484 -0.18537812757580954 0.25272165771352606 -0.06987440972939596 0.08683210643303826 -0.0022256320730476217 0.13627437583837493 0.11016625385319392 -0.2257958025087091 -0.0751120045887776 0.37781017492600105 -0.013582227468275185 0.13251464487376424 -0.0560675763530011 0.23003880473761423 -0.31130948008439696 -0.052401023365633945 0.07509587353620928 0.22682456788258612 -0.10187155581121943 0.09584441262710633 -0.11987584664120965 0.3144159493188273 -0.060955416305588414 -0.22679136803331806 -0.18302235304739536 0.16491382478962946 0.21459654007194856 -0.10746255691090499 -0.10161661993389852 -0.16521992406170624 -0.17617163724049684 -0.12964179556670494 0.1095224886666601 0.06752025475554009 0.15695692745512893 0.06509786759022862 0.11360962120096799 0.14951665752487944 -0.029605757043810615 -0.03868290002952908 0.2664271586922132 -0.21629386012745877 0.5056995446252247 -0.34179248744909546 0.08053412290972675 -0.18856431432895016 -0.11162952810461062 0.022665180514129454 -0.04049226420190095 -0.027533458864342174 -0.16898014539605424 -0.29990158650139653 -0.0847737942318415 0.09968388260809888 0.022092183320069333 -0.3042395640504637 -0.030215249843928076 -0.03960698060123632 0.23556418759220663 0.11609046658271252 -0.21951365895426037 0.018918675572019202 0.15690416600348628 0.06470285899183005 0.2982093165502509 -0.022574794271608467 -0.13116776153547532 0.21581051071782004 -0.06359887918619742 0.1613810010981237 0.1319851040283899 0.12874853533393618 -0.0932464163764628 0.10751438061841626 0.14177272448055536 -0.05889870216127835 0.020562474220115524 0.005328471471639923 0.02683424013445906 0.01779772661270275 -0.17822314498975378 -0.1418937747713263 -0.0317099480993659 -0.09922351169831149 -0.04505699273338445 -0.021755810726464 -0.12720805786715575 -0.07927819432904039 0.11043828002488612 -0.23178631529374788 0.049758164150107594 -0.22412894721541712 -0.08629663438684067 0.03167813336862334 0.07362844392921622 -0.21555902688797696 -0.32762550002812946 0.14943360125403668 0.640843275674605 -0.12971447419744248 -0.06497533253791633 -0.1573097651803513 -0.2510002866210162 0.12952355066298604 -0.5568923292597787 0.04229598825715508 0.0728471066726217 -0.25071526886285644 -0.126497076378642 -0.004503734514032354 0.09489039281291929 -0.13613557494047734 0.08711462354018105 -0.003348569815972202 0.028721780416327163 0.692500217345473 0.18966960110776396 -0.24313251155119864 -0.08380362186741451 0.12319543645650502 0.01787898554062703 -0.11892883056499423 0.07642463703832174 0.1314231877825335 0.05147743316366399 0.01098514746409145 0.05883363093359506 -0.2155744546324468 -0.0843702404862573 0.16574601285960275 -0.3484927528948111 0.010290865543227529 0.07775915395289731 -0.17992204944982115 -0.1504796698606462 -0.013092612778764445 -0.009113191217381713 -0.09002521877880623 0.14520474129409175 -0.04977285343647776 -0.06715027008827372 0.08267141417153417 0.15305139185464903 -0.09865229034949824 -0.020953718189659087 -0.20735875714875446 -0.04463588766670536 0.2564942454715874 0.1145024340593426 -0.2641084267872663 0.11820255612502761 -0.0029435176565171597 -0.0663340567801802 -0.11885675559933932 0.30161816342324627 0.12131556022536386 -0.07713867984759198 -0.029319922682206935 0.0724697705360055 -0.10761518749638564 -0.24465084861924316 0.2070292320024322 -0.051669052160876874 0.11926284514594163 -0.2918358490091498 -0.22826585802595548
data$$address:$$<*> 0.09252011864618014 -0.014583059758701528 0.013086191147024341 -0.04560822918039873 0.18244858213198167 -0.2306092988150278 -0.1726403896601425 -0.05632431054994671 -0.007347032323336007 -0.24892326576558788 0.18883118442693297 -0.19068944954572753 0.22784245234073064 0.13474708601816549 -0.15759082783874306 -0.02216670687700295 0.0073093853182415215 -0.25305026611483594 -0.24123769288853808 0.026536772565331795 -0.1663208224493259 -0.33193548811296975 0.14691921195197355 0.005562031382456839 -0.26959001656178727 -0.047533952849679345 -0.026824488042602755 -0.17036511155786782 -0.007183359936570342 0.007897166149288808 -0.2934898375346095 0.0808627849713667 0.3068906081039835 -0.047883414954967604 -0.11778018582165906 -0.12057537210707353 0.10469915538537801 -0.20261957053181706 0.06138781659113838 -0.007210131553943247 0.02729168118583965 -0.26458000759148853 0.20193078446457022 -0.04972223611371007 -0.007548719648764718 -0.0800212942327816 0.0958473294174656 0.14994497520840472 0.05732422063684835 0.2992042979825419 0.06732304039098297 0.37766799120313843 -1.2656385306350133 -0.02806893795736902 0.09350016792109869 0.231480740967818 -0.021972530487051965 -0.24128662937877562 -0.29901182690063927 -0.07959096468639439 -0.07239281369813318 0.10133554265577205 -0.08459429091605838 -0.11243398789963573 -0.12076420175361477 -0.11741077195393665 0.1250935805088305 -0.05007390857491927 0.13266142234793163 0.07409187606036637 -0.26865668928942105 -0.028852047897435437 -0.1275250648489913 -0.15536655946832287 0.08754854008922067 -0.15136572161505 0.04928554559640373 0.06622290985338135 -0.1024452587477231 0.1089244889763755 0.0033503423305517987 -0.20176347201969796 0.15809267284565395 -0.38427974352143024 -0.026884113887895418 0.04160504247964618 0.11622134113995478 0.0745863934099564 0.12275503512590177 -0.01965315483556736 -0.06469184963930459 -0.11815780170539818 0.055059494775324805 -0.2174770753687354 0.1793235189473993 -0.01577133923087004 -0.006306250647909559 -0.2726232432125885 0.07495041574767096 0.15734117346398807 -0.3846797998838968 0.015890269151739723 -0.08280767837209145 0.024420050925677603 -0.10311178899165424 -0.13003023159625327 -0.14180640148697576 0.005423657501535065 0.16604799035145162 -0.01439243247640605 0.1273490915040827 0.21428952968899861 -0.1040410593539829 -0.13879473820169652 0.06818190322525797 -0.0846495856227055 -0.01480847739622972 -0.14734668484849903 0.039570756474835364 -0.6243457456252449 0.12905935102375313 0.1221633847947381 -0.09819255478651956 0.25612925083629723 -0.009692211528537043 0.3121566758292998 -0.19484345233161304 0.004200127412859443 0.08245849324992068 -0.09085791850354183 -0.0765267710166239 -0.08438983926847374 0.044713101502107194 -0.14748399971531326 -0.03443780959199176 0.17920657131769546 0.10645254576785662 -0.03732879286175482 0.1241039456795625 0.04770817747719616 -0.0812296177950901 -0.2255568052758617 -0.18343812325628903 0.3485334347030282 0.11686363326940435 0.025227489930676656 0.03352309946208941 0.18358451587507063 -0.2491532915248791 -0.054377343907605034 -0.03419663283911621 0.10627528121232115 -0.17758528892743491 0.08492251004828558 -0.17091732000269233 0.15986348011042062 -0.05414542956210851 -0.20614220136257272 -0.028001248587618387 0.02127651046744489 0.034771006156805354 0.04702819217879918 0.012106463641821445 -0.25376140033310424 -0.2150022768876095 -0.023834712647070606 0.13840767663242146 -0.015038364663962219 -0.004798183501540383 0.10609608052947271 0.12475356546633293 0.060503057875441114 -0.06894049806772531 -0.1264820728176439 0.24884603838259547 -0.33643563471575266 0.4394181709877959 -0.09383428500846107 0.15000547678964804 -0.08453696913164724 -0.02209178217763732 0.13191241168255896 0.032842653902418015 -0.07331056375605417 -0.0954220220902629 -0.3063932802683847 0.13078136166709578 0.10832081053842212 -0.006322100713707979 -0.13636919798052383 -0.033360579794391894 -0.024331672549100923 0.10121260474322721 -0.016785210797364815 -0.15650553451668525 -0.0778552220054684 -0.1282908026933678 0.17912537935237133 0.2930834691195863 0.023499765987610485 0.14757758496648615 0.328059248693692 -0.04480599704999588 0.1052211368101347 0.07485236086629377 -0.05901310006915374 -0.1551179641076754 0.12126323627451681 0.02844189955549219 -0.08896375785155408 0.046959811728509555 0.14451615699612635 -0.012374964601050137 -0.19149214193740477 -0.06707435407988446 -0.10721224716553919 -0.078553546085957 0.004855828432921944 -0.024101186528535268 -0.0637808257313617 -0.03061815471273321 -0.12265329402256506 -0.0529653059421038 -0.1315369152042897 0.07125181019475196 -0.19743506132813873 -0.22656362754540793 -0.0768972438984539 0.1944249186954962 -0.21775152044695217 -0.26917249577592506 -0.10107473591017797 0.6321995976335686 -0.006837262283525929 -0.25115670421568126 -0.16026749830070933 -0.12656109783639052 0.10266772740768372 -0.49006115230084746 0.19390206291204362 0.1196386817597182 -0.1998675151092108 -0.07691931644361268 0.04367554578736585 -0.05851710823077991 0.029434989787455082 -0.05150105936182704 -0.33418141355387254 0.03086006871000066 0.5951418406111887 0.19879512287538378 -0.1890319498525581 -0.035852704207354744 -0.10285383889592195 -0.020853276381859145 -0.08521856603313199 0.03985317274980428 -0.1059384907532539 -0.11717844351101862 -0.01997473876826748 0.10723685321358932 -0.2733287564588392 0.031650688208290034 0.07320928291399187 -0.4389808355538034 -0.15595733544079066 0.033086134716175095 -0.019147301836981358 -0.14217217529659162 -0.19434888881817008 -0.06418668772125757 0.19341620783974467 -0.06768406758727702 -0.12420315328000787 -0.08460783829823004 0.05543563617028015 -0.031183541228906052 0.008625027546561012 -0.06675696279427115 -0.15464828362540006 0.055260121709391194 0.10159547366541546 0.02915400183741703 -0.106387437442105 0.12131281630418564 -0.03142093943211628 -0.006529410388409138 -0.10063394782800018 0.09653966321511319 -0.006629861658373703 -0.16229736083916874 0.0745685610529921 -0.02035046468854656 -0.053286291121970766 -0.34916310135010964 0.0627230412710687 -0.12667841477691766 0.0748653081183775 -0.2852897493816826 -0.24990216369869306
machine$$check:$$i-fetch......................<*> -0.1061925704210403 -0.18126676566214517 0.10729227188185486 0.05212774091788959 -0.13583940331418562 -0.20045848576608408 -0.006368227693941617 0.10539106877833539 -0.031675670692585395 0.16562703537614662 0.4608121422093468 0.09235806148348183 0.1478806743152536 0.22197603230794435 -0.03514382029578572 0.06419421100768505 -0.13727151656177075 -0.0419613354156948 -0.4378491082401068 -0.003266924728669759 -0.325892806633229 -0.3888544858734616 0.06310683105005331 0.17431925334979767 -0.09668256633023938 -0.25010020526009785 -0.041483878743610585 -0.01578567386164878 -0.055458446662664876 -0.2694978409708055 0.1555247147204931 0.04839866812079302 0.3120274406627734 0.14764022973379062 -0.07658275324132618 0.23649259542022047 0.09274810012256529 0.02864621172913323 0.07504125394018431 -0.04088461624913585 0.06687996375585416 0.2412767103927851 -0.2310440759132867 0.05188946192701574 0.1558143206978413 -0.2742122903331102 -0.2801764546276488 0.1831997500908397 -0.0662467415446446 -0.2295268043468262 -0.24866763833791639 0.16959591497515186 -2.075042327329396 -0.04093067910329801 -0.2679450389569219 -0.014158387120933286 0.06499672278197496 -0.09242310074098387 -0.07778973916996187 -0.399981244298239 0.016411325164652543 0.027494922371062158 -0.13165630115500063 0.19292961322616325 0.07648952327788061 -0.15074826477967063 -0.09763322567368067 -0.1347244275105111 0.14509657731548728 0.14474506488315764 0.06858706336056715 -0.04319269026431638 0.03590575585609583 0.14541364209568836 0.08301580182701433 -0.09479304695034839 0.021999488381397897 0.07393133256192257 0.016396949512129097 0.2335232583320474 -0.013373465124252987 -0.316351303587862 0.27723032234160144 -0.6131887208044031 0.054973209375475444 0.019156339500676314 0.06387026016060071 0.08308166711114337 -0.1976600131137943 -0.08669463043293114 -0.00958977855188636 -0.09877181703442366 -0.06517916815909434 -0.31579679864438476 0.06598319494344834 -0.055845292636488936 0.06536501176625796 -0.21438823627140208 0.04466656530356829 -0.1256590758340637 -0.6888255223776115 0.1804878781037798 -0.07259831241211061 -0.10026526333691627 -0.3570116441466168 0.06254222591460656 0.00599996431160002 -0.06464672535970939 0.18006029327084466 0.19612593073458304 -0.25085913640222113 0.12081090161689922 0.0913576929460227 0.11227182991718807 -0.21626961548512785 0.18547561470819027 0.0004362513374061641 0.13056130322739493 -0.24777712647169564 -0.9147658079318033 -0.01784926314365315 0.2046514784103391 -0.27378655860147233 0.039118336379133804 -0.0338850879668769 0.495344815238986 0.017424053608206543 0.26292849532684026 -0.09216923491795823 0.12054240337268259 0.13525764927475487 0.010381188661477886 0.1710949891031312 0.08027413000041053 0.04917106756624716 0.20788926668096064 -0.06536252088540634 0.0944794530639011 0.08662597909637089 0.1726499695085746 -0.14982924557609986 0.2120233828903624 -0.11365763634291419 0.6456403216989353 0.28703127197371264 -0.11286053854509703 0.35443832027310324 0.12654332209524335 0.034198669052353525 0.0200140000473982 -0.07436742125419747 0.1398232406246443 0.08058693212102834 0.2540983369005143 0.038496438340492774 0.5254270990448517 -0.19246494867494343 -0.10431924139205792 -0.15828825178526051 -0.1999705565499997 -0.10204618428696538 -0.15636033458294948 0.2209896200092098 0.029776333491333906 -0.3131176623934606 0.09099380780662746 0.3296708311193114 -0.08635744659135677 0.1385868998722049 0.24853673379628535 -0.01890526838893801 0.23962577383420364 -0.47708312602189445 -0.09361100334177261 0.16919201422088007 0.10607684195661826 0.879036403151773 0.3454855043958185 -0.025651697012059466 0.022973622096603155 -0.024753357468965342 0.04002886452433546 0.24970001936727673 -0.18030347684297074 -0.15845708767374458 -0.8932338044148539 -0.24091398937124997 -0.18831327694872957 0.1599973885962288 0.14847003766580216 0.22126487593597594 -0.02100465354588923 -0.014625358448046698 -0.11029258572840273 0.24344129745236956 0.14896426674772517 -0.08504648858563711 0.046199714731645566 0.3088602810722286 -0.11622946666619041 0.28547459245324713 0.11161250126805845 -0.21864159890074775 -0.16881733124722217 -0.11977109952349366 0.08114422311693684 -0.33228534752653227 -0.11010053223682226 -0.06012068314912943 0.08589154525856722 0.24646809008886816 -0.06515975954098491 0.2139878790745936 -0.13200203591768292 -0.15391202199805656 -0.003043684771815035 -0.3166243340613002 -0.02037793224856161 -0.04318967304515892 0.2469802169209511 -0.205305577187954 -0.05825029415885352 -0.03340490510510025 -0.009392563710386086 -0.21932803546052632 -0.29886123070925136 -0.004899839294871998 -0.11813089227757999 -0.06790908359836012 -0.1709871609792921 0.000656824967307304 0.25324329561897785 0.9194306422236265 -0.1803356775819446 -0.06188139505638356 -0.3333927181612035 -0.100935064530046 -0.16864467357278046 -0.6144308990892288 0.02146517102088888 -0.28100760212362247 -0.13913260992687737 0.10152277168522604 -0.31052112091685075 -0.05021041598505639 0.28727372364274806 0.2626126417262675 -0.03272927918055498 -0.1258756992936734 0.9793902486395503 0.08528708715337524 -0.1614223590082631 0.002853180551096103 0.019754938613655335 -0.05774202337352574 0.11163833813634025 -0.25365092403567097 0.11246594621696523 -0.03676423377058861 0.041492219957819085 -0.14332892362072563 0.005467846802477583 0.03019614636801994 0.11133719827952417 -0.4656604105500476 0.13527843171762388 -0.11062843000601502 -0.2382102959532674 -0.035660556537541216 -0.33745570081204945 0.08345300757538127 0.1597144676377206 -0.11709175356567016 0.05195974385700318 -0.05198647941562151 0.3393059278212985 -0.013911381762849548 0.11893882217045729 0.03901763828987484 0.020043941072246635 0.10463125174684623 0.13284405391162882 0.2293938369969985 0.006972501694175577 0.06537835168525498 0.036972935429788634 0.05180946495806018 -0.03426438449232196 -0.09523839700699507 0.22217416729960793 0.19170779797040785 -0.206774603366578 0.14402069697652597 0.10100853912529284 0.007039008899973519 0.21954517245747115 0.014427548746645633 0.37560527453279724 0.2450149632316878 -0.11212695633586174
program$$interrupt:$$illegal$$instruction......<*> 0.05709332135812109 -0.09661672228016105 0.25014997538049455 -0.06198134878956417 -0.25823944805321725 -0.20963196871368722 -0.11064114210043967 -0.033919782294384096 -0.021386131709732394 0.037663918479574884 0.18892197710505518 -0.06853806807859235 -0.23413508959878088 0.04922854241809703 -0.05125241240809347 0.04093726298700627 -0.2042119981510177 0.1922387305408594 0.010238709604274962 -0.15763979910584724 -0.30425509462152145 -0.09544274334156383 0.05494771154812994 0.4202510888734937 0.09408078613570427 -0.16584187166251677 0.2280464629587407 -0.21056359930637975 0.06029668502847005 -0.13028859939438225 -0.03655889368975183 0.20912895931801329 -0.025583954343602694 -0.08500127013726246 0.04927555146372256 0.04748656597097061 0.016726176400851264 -0.23615138344645084 -0.1536548112004507 -0.20479940920177064 -0.1562263464591193 -0.009865827186854163 0.05681544117708236 -0.1285337923086565 -0.05589048658616674 -0.19576576408925211 -0.2223813989790256 0.1974854936164396 -0.07467089620736453 -0.02280652976038896 0.04162390779952774 -0.2630116470154166 -1.6229985629218298 0.018401630488369174 0.1509812329491195 0.15182465699593223 0.18943642258738963 0.1936878736592425 -0.1525966711488518 0.2606702738461249 0.012003900407554467 -0.353889403239269 -0.08978922457655544 -0.3553116656414166 -0.04752723708357065 0.0637720130376947 0.24519124849174276 0.1568002729882812 0.10486694652129966 0.08102353040593985 -0.11048156338971687 -0.29433401229756145 -0.06566130144192273 0.012518416700457502 -0.010310568448882633 -0.15836364658918714 0.011771948631938017 -0.1232605590486714 -0.1749934953852048 0.2681208745280911 0.008554645349649066 0.08361330449838378 0.07911352359859966 -0.47174140723980373 0.027791824361503688 -0.03791338225584148 0.02941153685239245 0.22492288753349415 0.23280911520403702 0.06442357515033845 0.036506834167135974 0.006432513094256933 -0.045032584270194735 -0.054437213017086164 0.0037659808093131325 -0.07831512924484561 -0.034646037271503054 0.17134557518678112 0.03741336192858107 0.08229701094013155 -0.4899211725028486 0.32177901416154964 -0.0034377550139791345 -0.15070684426375933 0.09785161847377369 0.055480224116347635 -0.006320873795948194 0.28971639003727284 -0.05958162282217189 0.14127825408032582 -0.1289688974405988 -0.06304135737638865 0.08289316561901716 0.11377317294334442 -0.12412834073487858 0.16017248594767977 -0.14407323796988605 -0.1514737632232901 0.01628381598016044 -0.7370656020480035 0.13551959133443686 -0.07657501140816143 -0.07640896156459975 0.3333282404990417 -0.09600078806845411 0.5341534694608636 -0.10709088704962111 -0.04080344993175848 -0.11526327672437024 0.016449235761424076 0.05778364117690159 -0.21081575636259586 -0.05952078089645178 0.09232480582826595 0.09544543149338403 -0.23427819239279918 0.1288527069319238 0.004899014048629441 0.19627749139389955 0.2007689573355431 0.004389995339974903 -0.17471334231647262 -0.1407898524705943 0.45348320070263004 0.09237842114659853 -0.011421070764534663 -0.16466437915666687 0.23807132357085622 -0.1236569594326388 0.020899677748377886 -0.02360303416378003 0.04880228205614423 0.17011313901910619 0.12436409045800806 -0.1480107878900421 0.15510529799956335 -0.13192180947398874 -0.0020283926474288713 -0.02988660331158033 0.18029796618020566 0.14024305067532283 -0.0655876188866806 -0.005251103411127778 -0.19969382533866178 0.2999952023412613 -0.2683089347881334 0.1502689175427247 0.058497925974028545 -0.023212582163019087 -0.07126914796945076 0.13487122023699297 0.20967926685096738 0.10003206678226735 0.21112371551198758 -0.021603073610455367 0.044272671687326334 0.6702936217329747 -0.13665551869646708 -0.10395149587557234 -0.13464476443197843 -0.09651845185158422 -0.02580930153518155 0.0047707425878221075 0.09272342314455094 -0.03480483322992867 -0.11289780223119213 -0.19330816889277536 -0.13644504846445962 0.086493187384675 -0.16532581461104096 0.08577673771520355 -0.056141596111328546 0.34021572603188066 0.09731332184772461 0.0006543951905215728 -0.2593852577689411 -0.03362209977850629 0.05471429464326869 0.2867043802119725 0.01021335787735693 -0.0525737568704411 -0.012943535021889066 0.047249531013164675 0.0038335799340871654 -0.28254227408681165 0.12334754063588665 -0.03135139916456656 -0.0059103716823874705 0.028274830855131924 -0.04597159344841608 0.06011019760158367 -0.09816852335973905 0.056150412881502604 0.14529812276300413 -0.1332448472647985 -0.15628425191814116 -0.05016412306336256 -0.18877385876672909 -0.1344122372778899 0.0005591238918032024 -0.08373889891259206 -0.02962251605807602 0.3712543147135875 -0.05418535498150407 -0.22371001805410254 -0.4143954613216533 -0.2616174565719567 0.048980704865058906 -0.11089404590849446 -0.4056878811682065 -0.2645661974934492 -0.08138356152237447 0.714370836352169 -0.21450298410166724 -0.021166690673536593 -0.21110912435245066 -0.406584128629937 -0.12058128353675458 -0.5853965004370333 0.22879521433025798 -0.13495557689083904 -0.17853391733745413 -0.11961508344581501 -0.0593469389485234 0.09277610059407834 -0.00387199984310449 -0.13353758355285508 0.160478273300657 -0.17904176374752281 0.8464785631424099 0.10550545359843738 -0.14936775302186311 -0.3424940158588855 0.10168403855123759 -0.00896796998272447 -0.14085670257352662 0.06550775968385592 0.04570838106839209 -0.0026968055422245396 0.11742781452805842 -0.18216072026733388 0.05252504087799236 -0.07309022711298177 -0.016033840898763432 -0.39231801588553394 0.1592596025539964 -0.197620805020302 -0.11430995021853493 -0.18275784693024053 0.0035849349902687677 -0.16181571006525147 -0.062097969592007654 -0.07669146710418065 -0.08324182824235964 0.032156517728647284 0.0953392853543372 0.09465664287082404 -0.224015752635286 -0.0964164040057619 -0.14673136076913207 -0.06978942893704494 0.1932494614553863 -0.0383208011319538 -0.04195971228222578 -0.04419080510992243 0.08263527658843034 0.1030816029859147 0.00042280387792052775 0.17737704868479598 0.0544227575885205 -0.0006211490345733386 -0.09959957774664976 0.243487267272649 -0.12483831381045506 0.009593338592627676 0.15288745369347284 0.056688786828441556 0.28093624566875236 -0.26337510432734534 0.08316510475508812
